1 1 1.92080342857143
1 2 1.92080342857143
1 3 1.92080342857143
1 4 1.92080342857143
1 5 1.92080342857143
1 6 1.92080342857143
1 7 1.92080342857143
2 8 1.82556533333333
3 9 1.492232
4 10 -2.507768
5 11 2.15889866666667
5 12 2.15889866666667
5 13 2.15889866666667
6 14 -0.407767999999999
7 15 0.742232
7 16 2.242232
7 17 2.742232
7 18 1.242232
8 19 1.492232
9 20 0.492232
10 21 -1.007768
10 22 -2.257768
11 23 -1.307768
12 24 0.992232
12 25 -0.757768
13 26 -0.00776800000000044
14 27 -0.507768
15 28 -0.738537230769229
16 29 0.492232
16 30 0.492232000000001
16 31 0.492232
16 32 0.492232000000001
17 33 -0.507768
17 34 -0.507767999999999
18 35 0.492232
19 36 0.492232
20 37 1.82556533333333
20 38 -1.17443466666667
20 39 1.82556533333333
21 40 -2.507768
22 41 4.492232
23 42 -0.00776800000000044
24 43 -0.507768
25 44 2.492232
26 45 -2.507768
27 46 0.492232
28 47 2.492232
29 48 3.492232
30 49 -0.507768
30 50 -0.507768
31 51 0.492232
32 52 -0.0867153684210509
33 53 -0.841101333333334
33 54 -0.841101333333334
33 55 -0.841101333333333
34 56 -0.222053714285715
35 57 -0.132768
35 58 -0.132768
35 59 0.367232
35 60 -0.132768
35 61 0.367232000000001
35 62 -4.932768
35 63 -0.132767999999999
35 64 -0.132767999999999
36 65 0.492232
37 66 -0.507768
38 67 2.492232
39 68 1.492232
40 69 -0.632768
40 70 -1.132768
40 71 0.700565333333334
40 72 -0.632768
40 73 0.367232
40 74 -0.632767999999999
40 75 1.83389866666667
40 76 -0.632768
41 77 -0.382767999999999
42 78 0.492232
43 79 -2.507768
44 80 1.492232
45 81 -2.507768
46 82 0.158898666666667
46 83 0.158898666666666
46 84 0.158898666666667
46 85 0.158898666666666
46 86 0.158898666666667
46 87 0.158898666666666
47 88 2.492232
48 89 2.312232
48 90 -1.007768
49 91 0.992232
50 92 3.492232
51 93 0.492232
52 94 4.492232
53 95 -0.507767999999999
53 96 -0.507768
53 97 -0.507768
53 98 -0.507768
53 99 -0.507768
53 100 -0.507768
53 101 -0.507767999999999
53 102 -0.507768
53 103 -0.507768
53 104 -0.507768
53 105 -0.507768
53 106 -0.507768
53 107 -0.507768
53 108 -0.507768
53 109 -0.507768
53 110 -0.507768
53 111 -0.507768
53 112 -0.507768
53 113 -0.507768
53 114 -0.507768
53 115 -0.507768
53 116 -0.507768
53 117 -0.507767999999999
53 118 -0.507768
53 119 -0.507767999999999
53 120 -0.507768
53 121 -0.507767999999999
53 122 -0.507767999999999
53 123 -0.507767999999999
53 124 -0.507767999999999
53 125 -0.507768
53 126 -0.507768
53 127 -0.507768
53 128 -0.507768
53 129 -0.507767999999999
53 130 -0.507768
53 131 -0.00776799999999866
53 132 -0.507768
53 133 -0.507767999999999
53 134 -0.507768
53 135 -0.507768
53 136 -0.507768
53 137 -0.507768
53 138 -0.507768
53 139 -0.507767999999999
53 140 -0.507768
53 141 -0.507767999999999
53 142 -0.507768
53 143 -0.507768
53 144 -0.507767999999999
53 145 -0.507767999999999
53 146 -0.507768
53 147 -0.507767999999999
53 148 -0.507767999999999
53 149 -0.507768
53 150 -0.507767999999999
53 151 -0.507767999999999
53 152 -0.507768
53 153 -0.507768
53 154 -0.507767999999999
53 155 -0.507768
53 156 -0.507768
53 157 -0.507768
53 158 -0.507768
53 159 -0.507767999999999
53 160 -0.507768
53 161 -0.507767999999999
53 162 -0.507767999999999
53 163 -0.507767999999999
53 164 -0.507767999999999
53 165 -0.507768
53 166 -0.507767999999999
53 167 -0.507768
53 168 -0.507767999999999
53 169 -0.507768
53 170 -0.507767999999999
53 171 -0.507767999999999
53 172 -0.507767999999999
53 173 -0.507768
53 174 -0.507768
53 175 -0.507768
53 176 -0.507768
53 177 -0.507768
53 178 -0.507768
53 179 -0.507768
53 180 -0.507767999999999
53 181 -0.507767999999999
53 182 -0.507768
53 183 -0.507768
53 184 -0.507768
53 185 -0.507768
54 186 -1.22205371428571
55 187 0.492232
56 188 1.492232
57 189 -1.757768
58 190 1.492232
59 191 -0.507768
60 192 -2.507768
61 193 -0.507768
62 194 -1.007768
63 195 -1.757768
63 196 0.158898666666667
64 197 1.492232
65 198 1.292232
65 199 1.292232
65 200 1.292232
65 201 1.292232
65 202 1.292232
66 203 -1.507768
67 204 -1.05322254545454
67 205 -1.05322254545454
67 206 -1.05322254545454
67 207 -1.05322254545455
67 208 -1.05322254545454
67 209 -1.05322254545454
67 210 -1.05322254545455
67 211 -1.05322254545454
67 212 -1.05322254545454
67 213 -1.05322254545454
67 214 -1.05322254545454
67 215 -1.05322254545454
67 216 -1.05322254545454
67 217 -1.05322254545454
67 218 -1.05322254545454
67 219 -1.05322254545455
67 220 -1.55322254545454
67 221 -1.05322254545454
67 222 -1.05322254545454
67 223 -1.05322254545455
67 224 -1.55322254545455
67 225 -1.05322254545455
67 226 1.44677745454545
67 227 -1.05322254545455
67 228 -1.05322254545454
67 229 -1.05322254545455
67 230 -1.05322254545454
67 231 -1.05322254545454
67 232 -1.05322254545455
67 233 -1.05322254545454
67 234 -1.05322254545455
67 235 -1.05322254545455
67 236 -1.05322254545455
68 237 1.46445422222222
68 238 -0.149182141414141
68 239 0.214454222222222
68 240 1.83945422222222
68 241 1.80268951633987
68 242 -0.385545777777778
68 243 0.714454222222223
68 244 0.214454222222222
68 245 0.0715970793650786
68 246 1.21445422222222
68 247 -0.0655457777777784
68 248 2.21445422222222
68 249 -0.785545777777778
68 250 -1.78554577777778
68 251 -0.285545777777777
68 252 0.214454222222222
68 253 0.214454222222222
68 254 -3.11887911111111
69 238 -0.728547220779221
69 255 -0.164910857142857
69 256 0.453270961038962
69 257 -0.364910857142857
69 258 -0.364910857142856
69 259 0.492232
69 260 -1.69824419047619
70 261 0.492232
71 262 -0.507768
72 263 -0.283630068965517
72 264 0.216369931034485
72 265 -0.283630068965517
72 266 -1.28363006896552
72 267 -4.03363006896552
72 268 -0.0984448837803296
72 269 -0.283630068965515
72 270 -0.283630068965517
72 271 -0.283630068965517
72 272 -0.283630068965517
72 273 -2.78363006896552
72 274 -0.283630068965517
72 275 -0.283630068965517
72 276 -0.283630068965517
72 277 -0.283630068965517
72 278 -0.283630068965517
72 279 -0.283630068965517
72 280 0.383036597701151
72 281 -0.283630068965517
72 282 -0.283630068965515
72 283 -0.283630068965515
72 284 -0.283630068965515
72 285 -0.283630068965517
72 286 1.49414770881226
72 287 -0.283630068965517
72 288 -0.283630068965517
72 289 -0.283630068965515
72 290 -0.283630068965515
72 291 -0.283630068965515
72 292 -0.283630068965517
72 293 -0.283630068965517
72 294 0.216369931034485
72 295 0.466369931034485
72 296 -0.0483359513184567
72 297 -0.783630068965515
72 298 0.316369931034485
72 299 -0.683630068965515
72 300 -0.283630068965517
72 301 0.216369931034483
72 302 -1.78363006896552
72 303 -0.283630068965517
72 304 -0.616963402298849
72 305 -1.03363006896552
72 306 -0.283630068965517
72 307 -0.283630068965517
72 308 0.466369931034485
72 309 -1.03363006896551
72 310 -1.61696340229885
72 311 -0.514399299734748
72 312 -0.450296735632183
72 313 0.0497032643678157
72 314 -0.283630068965517
72 315 -0.783630068965515
72 316 -0.283630068965515
72 317 -0.783630068965515
72 318 -0.283630068965517
72 319 -0.283630068965515
72 320 -0.283630068965515
73 321 -1.007768
74 322 -1.007768
74 323 -0.507768
75 324 -2.507768
76 325 -0.00776800000000044
76 326 0.242232
76 327 0.242232
76 328 0.242232
77 329 1.492232
78 330 1.492232
79 52 -0.0867153684210527
80 331 0.992232
80 332 0.992232
81 333 -1.507768
82 334 1.32556533333333
82 335 1.992232
82 336 -0.00776800000000044
82 337 1.992232
82 338 1.992232
82 339 1.992232
82 340 1.992232
82 341 0.492232
83 342 3.492232
84 343 0.492232
85 344 -0.507768
86 345 -0.00776799999999866
87 346 2.492232
88 347 -2.507768
89 348 0.825565333333333
90 349 -0.00776800000000044
90 350 -0.00776800000000044
91 351 -1.507768
92 352 0.158898666666667
93 353 1.492232
94 354 0.492232
95 355 0.992232
95 356 1.492232
96 357 0.992232
96 358 0.992232
96 359 0.992232
96 360 0.992232
97 22 -1.757768
98 361 -1.507768
99 362 1.992232
100 363 1.492232
100 364 1.492232
101 365 -2.507768
102 366 3.65889866666667
102 367 -0.00776799999999866
102 368 -0.00776800000000044
102 369 1.492232
102 370 -0.00776799999999866
102 371 -0.00776800000000044
102 372 -0.00776800000000044
102 373 -0.00776800000000044
103 374 0.292231999999999
103 375 0.292231999999999
103 376 1.292232
103 377 -0.0411013333333319
103 378 0.292232000000002
104 379 0.429732
104 380 -1.382768
104 381 -0.0702680000000004
104 382 -0.0702680000000004
104 383 -1.570268
104 384 -0.0702679999999987
104 385 -0.0702679999999987
104 386 0.929732000000001
104 387 -0.0702679999999987
104 388 -0.0702680000000004
104 389 -0.0702680000000004
104 390 -0.0702680000000004
104 391 -0.0702680000000004
104 392 -1.070268
104 393 -0.0702680000000004
104 394 -1.23693466666667
105 395 0.682708190476191
105 396 0.68270819047619
105 397 0.68270819047619
105 398 0.682708190476191
105 399 0.68270819047619
105 400 0.682708190476191
105 401 0.68270819047619
105 402 0.682708190476191
105 403 0.68270819047619
105 404 0.68270819047619
105 405 -0.31729180952381
105 406 0.68270819047619
105 407 0.68270819047619
105 408 0.68270819047619
105 409 0.682708190476191
105 410 0.682708190476191
105 411 0.68270819047619
105 412 0.682708190476191
105 413 0.68270819047619
105 414 0.68270819047619
105 415 0.68270819047619
106 416 1.492232
106 417 1.492232
107 418 1.492232
108 419 -0.107768
108 420 0.558898666666668
108 421 -0.107768
108 422 -0.107768
108 423 -0.107768
109 424 1.242232
109 425 -1.507768
110 426 0.892232
110 427 0.892232
110 428 -0.441101333333334
110 429 0.892232
110 430 0.255868363636363
111 431 -0.507768
112 432 3.492232
113 433 0.492232
114 434 1.492232
114 435 -1.507768
115 436 -0.841101333333334
115 437 -0.591101333333333
115 438 -1.17443466666667
116 439 1.32556533333333
116 440 0.825565333333333
116 441 0.825565333333333
117 442 0.242232
117 443 1.242232
117 444 0.242232
117 445 0.242232
118 446 -0.507767999999999
118 447 -0.507768
118 448 -0.0791965714285716
118 449 1.82556533333333
118 450 -0.507768
118 451 -3.257768
118 452 -0.507767999999999
118 453 -0.507767999999999
118 454 -0.507767999999999
118 455 -0.507767999999999
118 456 -0.507768
118 457 -0.507768
119 458 3.492232
120 459 0.254136761904761
121 460 1.042232
121 461 0.292231999999999
121 462 0.292231999999999
121 463 0.292231999999998
121 464 0.625565333333332
122 465 -0.507768
123 466 -0.341101333333331
123 467 -0.341101333333333
123 468 -0.341101333333331
123 469 -0.341101333333331
123 470 -0.341101333333331
123 471 -0.341101333333333
124 472 -2.507768
125 473 0.158898666666667
125 474 0.992232
125 475 0.492232
126 476 0.492232
127 89 0.145565333333333
127 477 0.492232
127 478 -0.174434666666667
128 479 -1.107768
128 480 -0.107768
128 481 -0.274434666666667
128 482 -0.107767999999998
128 483 -0.107768
129 484 0.492232
130 485 -1.007768
131 486 2.492232
132 487 -0.507768
132 488 -0.507768
133 489 -2.007768
134 490 -1.507768
134 491 -1.507768
135 492 0.092232000000001
135 493 -2.407768
135 494 -1.907768
135 495 -0.407768000000001
135 496 1.092232
135 497 -1.907768
135 498 -0.907767999999999
135 499 -0.907767999999999
135 500 -1.907768
135 501 -1.907768
135 502 0.092232000000001
135 503 -1.907768
135 504 -1.407768
135 505 -1.907768
135 506 0.592232000000001
136 507 1.08314109090909
136 508 -1.52797002020202
136 509 -0.41685890909091
136 510 -0.41685890909091
136 511 -0.91685890909091
136 512 -0.41685890909091
136 513 -0.41685890909091
136 514 -0.41685890909091
136 515 -0.416858909090909
136 516 -0.41685890909091
136 517 -0.41685890909091
137 518 1.54778755555556
137 519 -0.785545777777779
137 520 -0.452212444444445
137 521 -0.452212444444443
137 522 -0.452212444444443
137 523 -0.452212444444445
137 524 -0.452212444444445
137 525 -0.452212444444443
137 526 -0.118879111111112
137 527 -0.452212444444445
137 528 0.214454222222223
137 529 -1.95221244444445
137 530 -0.452212444444445
137 531 -0.952212444444445
137 532 -0.452212444444445
137 533 0.0477875555555549
137 534 -1.11887911111111
137 535 -0.452212444444445
137 536 -0.952212444444445
137 537 -0.452212444444445
137 538 -0.452212444444445
137 539 -0.452212444444445
137 540 -0.452212444444443
137 541 -0.452212444444443
137 542 -0.452212444444443
137 543 -0.452212444444443
137 544 -0.452212444444443
137 545 -0.452212444444443
137 546 -0.452212444444445
137 547 -0.452212444444445
137 548 -0.452212444444443
137 549 1.21445422222222
137 550 -0.452212444444445
137 551 -0.452212444444445
137 552 -1.95221244444445
137 553 -0.452212444444445
138 554 0.992232
138 555 1.32556533333333
139 556 0.492232
140 557 -1.507768
141 558 -1.007768
142 559 -2.507768
143 560 0.492232
144 561 1.492232
145 562 -0.507768
146 563 -2.007768
147 564 -0.364910857142857
148 565 -0.507768
149 566 1.492232
149 567 1.492232
149 568 -1.632768
149 569 1.492232
149 570 1.492232
149 571 1.492232
150 572 -1.507768
150 573 -1.507768
150 574 -1.507768
150 575 -1.507768
150 576 -1.507768
151 577 0.492232
152 578 0.492232
153 579 -0.174434666666665
153 580 1.52556533333334
153 581 -0.299434666666665
153 582 0.789851047619049
153 583 -1.17443466666667
153 584 -1.17443466666667
154 585 -1.507768
154 586 -1.507768
154 587 -2.007768
155 588 1.492232
156 589 -0.507768
157 590 -0.00776800000000044
157 591 0.242232
157 592 -1.507768
157 593 0.492232000000001
158 594 0.992232
158 595 0.992232
159 596 -0.507768
160 597 0.492232
161 598 -1.307768
161 599 -1.307768
161 600 -1.307768
161 601 -1.307768
161 602 -1.307768
161 603 -1.307768
161 604 -1.307768
161 605 -1.307768
161 606 -1.307768
161 607 -1.307768
162 608 1.15889866666667
162 609 -1.17443466666667
162 610 -1.17443466666666
162 611 -1.17443466666666
162 612 -1.17443466666666
162 613 -1.17443466666667
163 614 1.242232
163 615 2.992232
164 616 5.492232
165 617 -1.757768
165 618 1.242232
165 619 -0.424434666666665
165 620 -1.757768
165 621 -1.757768
165 622 -0.424434666666665
165 623 -0.257767999999999
165 624 0.117232000000001
165 625 -1.42443466666666
165 626 -0.424434666666666
165 627 -0.157767999999999
165 628 -0.757767999999999
165 629 0.527946285714287
165 630 0.867232000000001
165 631 -0.424434666666665
165 632 -2.757768
165 633 -1.757768
165 634 -1.757768
165 635 -1.007768
165 636 -1.757768
165 637 -1.757768
165 638 -0.567291809523809
165 639 0.464454222222224
165 640 -2.42443466666667
165 641 -1.757768
165 642 -0.757767999999999
165 643 -1.357768
165 644 -1.507768
165 645 -0.757767999999999
165 646 -1.757768
165 647 -0.757767999999999
165 648 -1.757768
165 649 -1.757768
165 650 -1.757768
165 651 -2.757768
165 652 -3.42443466666667
165 653 -2.257768
165 654 -1.757768
165 655 0.742232000000001
165 656 0.242232000000001
165 657 -1.757768
165 658 -1.757768
165 659 -0.757767999999999
165 660 -2.007768
165 661 -1.757768
165 662 -1.757768
165 663 -0.0911013333333317
165 664 -0.757767999999999
165 665 -1.757768
165 666 -1.757768
165 667 -1.757768
165 668 -1.757768
166 669 0.492232
167 670 -0.507768
167 671 0.492232
167 672 0.492232
168 673 1.22556533333333
169 674 -0.150625142857144
169 675 -0.150625142857144
169 676 -0.150625142857144
169 677 -0.150625142857144
169 678 -0.150625142857144
169 679 -0.150625142857141
169 680 -0.150625142857141
169 681 -0.150625142857144
169 682 -0.150625142857144
169 683 -0.150625142857144
169 684 -0.150625142857141
169 685 -0.150625142857141
169 686 -0.150625142857144
169 687 -0.150625142857144
169 688 0.349374857142859
169 689 -0.150625142857144
169 690 -0.150625142857144
169 691 -0.150625142857144
169 692 -0.817291809523811
169 693 -0.650625142857144
169 694 -0.150625142857144
169 695 -0.150625142857144
169 696 -0.150625142857144
169 697 -0.150625142857144
169 698 -0.150625142857144
169 699 -0.150625142857144
169 700 -0.150625142857141
169 701 -0.150625142857144
169 702 -0.150625142857144
169 703 -0.150625142857144
169 704 -0.150625142857144
169 705 -0.150625142857141
169 706 -0.150625142857141
169 707 -0.150625142857144
169 708 -0.150625142857144
169 709 -4.90062514285714
169 710 -0.150625142857144
169 711 -0.150625142857141
169 712 -0.150625142857144
169 713 -0.150625142857144
169 714 -0.150625142857144
169 715 -0.150625142857144
169 716 -0.150625142857144
169 717 -0.150625142857144
169 718 -0.150625142857141
169 719 -0.150625142857144
169 720 -0.150625142857144
169 721 -0.150625142857144
169 722 -0.150625142857144
169 723 -0.150625142857144
169 724 -0.150625142857144
169 725 -0.150625142857144
169 726 -0.150625142857141
169 727 -0.150625142857144
169 728 2.34937485714286
169 729 -0.483958476190478
169 730 -0.150625142857144
169 731 -0.150625142857144
169 732 -0.150625142857144
169 733 -0.150625142857144
169 734 0.349374857142856
169 735 -0.150625142857144
169 736 -0.150625142857144
169 737 -0.150625142857144
169 738 -0.150625142857144
169 739 -0.150625142857141
169 740 -0.150625142857144
169 741 -0.150625142857141
169 742 -0.150625142857144
169 743 -0.150625142857144
170 744 0.492232
171 745 -1.007768
172 746 -0.722053714285715
172 747 0.777946285714286
172 748 0.777946285714285
172 749 0.777946285714286
172 750 0.777946285714285
172 751 -0.222053714285715
172 752 0.777946285714285
172 753 0.777946285714286
172 754 -0.222053714285715
172 755 0.777946285714286
172 756 0.777946285714285
172 757 0.777946285714286
172 758 0.777946285714286
172 759 0.777946285714286
172 760 0.777946285714285
172 761 0.777946285714285
172 762 0.777946285714285
172 763 0.777946285714285
172 764 0.777946285714285
172 765 0.777946285714285
172 766 -1.22205371428571
172 767 0.777946285714285
172 768 0.777946285714285
172 769 0.777946285714286
172 770 0.777946285714285
172 771 0.777946285714285
172 772 0.777946285714285
172 773 0.777946285714285
173 774 -0.00776800000000044
173 775 1.992232
174 776 -0.507768
175 777 -0.507768
176 778 -1.007768
176 779 -1.007768
177 780 -0.507768
178 781 -1.007768
178 782 1.992232
179 783 0.742232
179 784 -0.757768
179 785 -0.757768
179 786 0.742232
180 787 2.492232
181 788 0.492232
182 789 1.492232
182 790 1.492232
182 791 1.492232
183 792 0.492232
184 793 -0.147768
184 794 -0.647767999999999
184 795 -0.147768
184 796 -0.147767999999999
184 797 1.352232
184 798 -0.147767999999999
184 799 -2.31443466666667
184 800 -0.147767999999999
184 801 -0.147767999999999
184 802 -0.147768
184 803 -0.147768
184 804 -0.147768
184 805 -0.147768
184 806 -0.147768
184 807 1.39768654545455
184 808 -0.147767999999999
184 809 0.352232000000001
184 810 -0.147768
184 811 0.518898666666667
184 812 -0.147768
184 813 -0.147767999999999
184 814 -0.147767999999999
184 815 -0.147768
184 816 -0.147767999999999
184 817 -0.147767999999999
185 818 0.092232000000001
186 819 1.242232
186 820 0.575565333333333
186 821 1.242232
186 822 1.242232
187 823 -2.007768
188 824 -0.00776800000000044
188 825 0.992232
189 826 -1.007768
190 827 -1.257768
190 828 -0.591101333333333
190 829 0.742232000000001
190 830 -1.257768
191 831 -0.00776800000000044
192 832 2.492232
193 833 -2.907768
193 834 -0.507768
193 835 -1.507768
193 836 -0.507767999999999
193 837 1.742232
193 838 -0.507768
193 839 -0.507768
193 840 0.492232
193 841 1.492232
193 842 -0.507767999999999
193 843 -0.507767999999999
194 844 -1.507768
195 845 -1.17443466666667
195 846 -1.17443466666666
195 847 -1.17443466666666
195 848 -1.17443466666666
195 849 -1.17443466666666
195 850 -1.17443466666667
195 851 -1.17443466666667
195 852 -1.17443466666666
195 853 -1.17443466666667
195 854 -1.17443466666666
195 855 -1.17443466666666
195 856 -1.17443466666666
195 857 -1.17443466666667
195 858 -1.17443466666667
195 859 -1.17443466666666
196 860 0.492232
197 861 0.825565333333333
197 862 -0.174434666666667
197 863 -0.174434666666667
198 864 0.242232
198 865 0.242232
198 866 0.742232
198 867 -1.257768
199 868 -2.257768
199 869 -2.257768
199 870 -2.257768
199 871 -2.257768
199 872 -2.257768
199 873 -2.257768
199 874 -2.257768
199 875 -2.257768
199 876 -2.257768
199 877 -2.257768
199 878 -2.257768
199 879 -2.257768
199 880 -2.257768
199 881 -2.257768
199 882 -2.257768
199 883 -2.257768
200 884 0.992232
201 885 -0.507768
202 886 -0.00776799999999866
202 887 -0.00776799999999866
202 888 -1.507768
203 889 -0.507768
204 890 -1.84110133333333
204 891 -0.141101333333333
204 892 0.658898666666667
205 893 1.492232
206 894 -2.507768
207 895 -1.107768
208 896 -2.507768
209 897 -1.67443466666667
210 898 -0.674434666666667
210 899 -0.507767999999999
210 900 -1.007768
210 901 -1.007768
210 902 -1.007768
210 903 -1.007768
211 904 -1.007768
211 905 -1.507768
212 451 1.742232
213 906 -0.00776799999999866
214 907 -2.507768
215 908 -0.507768
216 909 3.992232
216 910 0.992232
217 911 -0.507768
218 912 -1.007768
219 913 -0.899072347826086
219 914 -1.74351679227053
219 915 0.100927652173914
219 916 1.35092765217391
219 917 0.600927652173914
219 918 -0.899072347826088
219 919 -1.23240568115942
219 920 -0.899072347826086
219 921 -2.18478663354037
219 922 -0.899072347826088
219 923 -0.899072347826088
219 924 0.76759431884058
219 925 -0.0657390144927525
219 926 -1.89907234782609
219 927 -0.399072347826088
219 928 -0.899072347826088
219 929 -0.425388137299772
219 930 -0.899072347826086
219 931 -0.899072347826088
219 932 -0.899072347826088
219 933 -0.899072347826086
219 934 -0.899072347826086
219 935 -0.899072347826088
220 936 -0.507768
221 937 1.492232
222 938 -0.841101333333334
222 939 -0.174434666666667
222 940 0.992232
223 941 0.992232
224 942 -0.00776800000000044
225 943 -1.007768
225 944 -1.007768
225 945 -1.007768
225 946 -1.007768
226 947 -2.17443466666666
227 948 3.492232
227 949 -0.507768
227 950 3.492232
227 951 2.117232
227 952 3.492232
227 953 3.492232
227 954 3.492232
228 955 1.492232
228 956 2.492232
229 957 -0.341101333333333
229 958 -1.257768
229 959 -0.507768
229 960 -0.507768
230 961 0.936676444444444
230 962 0.936676444444444
230 963 0.936676444444444
230 964 0.936676444444444
230 965 0.936676444444446
230 966 0.936676444444444
230 967 0.936676444444444
230 968 0.936676444444444
230 969 0.936676444444444
230 970 0.936676444444444
230 971 0.936676444444444
230 972 0.936676444444446
230 973 0.936676444444444
230 974 2.93667644444444
230 975 0.936676444444446
230 976 0.936676444444444
230 977 0.936676444444444
230 978 0.936676444444444
230 979 -0.0633235555555558
230 980 0.936676444444446
230 981 0.936676444444444
230 982 0.936676444444444
230 983 0.936676444444444
230 984 0.936676444444446
230 985 0.936676444444444
230 986 0.936676444444444
230 987 0.936676444444444
231 988 -1.107768
231 989 -2.307768
231 990 -0.307767999999999
231 991 -0.307767999999999
231 992 -0.307768
232 993 0.492232000000001
233 994 -0.113031157894735
233 995 1.38696884210527
233 996 -1.11303115789474
233 997 -1.11303115789473
233 998 -1.11303115789473
233 999 -1.11303115789474
233 1000 -0.779697824561404
233 1001 -1.11303115789474
233 1002 0.220302175438599
233 1003 -1.11303115789473
233 1004 -1.11303115789473
233 1005 -1.11303115789473
233 1006 0.886968842105265
233 1007 -1.11303115789473
233 1008 -1.11303115789474
233 1009 1.33141328654971
233 1010 -1.11303115789473
233 1011 -1.11303115789474
233 1012 -1.11303115789473
233 1013 -1.11303115789473
233 1014 -1.11303115789473
233 1015 -1.11303115789473
233 1016 -2.61303115789474
233 1017 -1.11303115789474
233 1018 -1.61303115789473
233 1019 -1.11303115789473
233 1020 -0.113031157894735
233 1021 -1.11303115789473
233 1022 -2.11303115789474
233 1023 -0.113031157894735
233 1024 -1.11303115789473
233 1025 0.44252439766082
233 1026 -1.11303115789473
233 1027 0.220302175438597
233 1028 -0.113031157894735
233 1029 1.05363550877193
233 1030 -1.61303115789474
233 1031 -1.11303115789473
234 1032 0.492232
235 1033 0.492232000000001
235 1034 -3.12315261538462
236 1035 0.492232
237 1036 -0.507768
238 1037 0.492232
239 1038 -0.00776800000000044
239 1039 -0.00776800000000044
240 1040 -1.147768
240 1041 2.492232
240 1042 1.492232
240 1043 1.492232
240 1044 1.492232
241 914 3.14778755555556
241 1045 1.992232
241 1046 1.992232
241 1047 1.992232
241 1048 1.992232
241 1049 1.992232
241 1050 -0.507768
241 1051 1.992232
241 1052 1.992232
241 1053 1.992232
241 1054 1.992232
241 1055 1.992232
242 1056 -0.293482285714285
242 1057 -1.29348228571429
242 1058 -1.29348228571429
242 1059 -0.193482285714285
242 1060 -0.793482285714287
242 1061 -1.79348228571429
242 1062 -1.29348228571429
242 1063 -1.29348228571429
242 1064 -1.29348228571429
242 1065 -1.29348228571429
242 1066 -1.29348228571429
242 1067 -1.29348228571429
242 1068 -1.29348228571429
242 1069 -1.29348228571429
243 1070 -1.507768
244 1071 -1.507768
245 1072 -0.00776800000000044
245 1073 -0.341101333333334
246 1074 -0.507767999999999
246 1075 -0.507767999999999
246 1076 -0.507767999999999
246 1077 -0.507768
246 1078 -0.507768
246 1079 -0.507768
247 920 -1.507768
248 1080 -2.507768
249 1081 -2.507768
250 1082 4.492232
251 1083 -0.507768
252 1084 0.492232
252 1085 0.492232
252 1086 0.492232
252 1087 -0.174434666666667
252 1088 0.492232
252 1089 0.492232
252 1090 -0.507768
252 1091 -0.174434666666667
252 1092 0.492232
252 1093 0.492232
252 1094 0.158898666666666
252 1095 -1.507768
252 1096 0.492232
252 1097 -1.257768
252 1098 -1.007768
252 1099 0.635089142857144
252 1100 0.492232000000001
252 1101 -0.757768
252 1102 0.492232
252 1103 0.492232
252 1104 0.492232
252 1105 0.492232
252 1106 0.492232
252 1107 0.492232
253 1108 0.492232
254 1109 0.825565333333333
255 312 -0.674434666666667
256 1110 -0.738537230769229
257 1111 -0.841101333333333
258 1112 -0.507768
259 1113 -2.007768
260 1114 -2.507768
261 1115 -0.507768
262 1116 -2.507768
263 1117 -2.507768
264 1118 -0.174434666666667
264 1119 -0.174434666666667
264 1120 -0.174434666666667
265 1121 -1.507768
265 1122 -1.507768
266 1123 0.117232
267 1124 0.892232
268 1125 -0.919532705882352
269 1126 -0.00776800000000044
269 1127 0.492232000000001
269 1128 0.492232000000001
270 1129 2.492232
271 1130 -0.174434666666667
272 1131 0.492232
272 1132 0.492232
273 1133 0.092232000000001
273 1134 -1.84110133333333
273 1135 -1.84110133333333
274 1136 0.892232000000002
274 1137 -1.507768
275 1138 0.692232
275 1139 -0.757768
276 1140 -0.695267999999999
276 1141 -0.695268
276 1142 0.804732
276 1143 -0.695268
276 1144 -0.695267999999999
276 1145 -0.695268
276 1146 -0.695267999999999
276 1147 0.304732000000001
276 1148 -0.695268
276 1149 -0.695267999999999
276 1150 -0.695267999999999
276 1151 -0.695268
276 1152 1.054732
276 1153 -0.695267999999999
276 1154 -0.695268
276 1155 -0.361934666666665
276 1156 -0.695268
276 1157 -1.02860133333333
276 1158 -0.695267999999999
276 1159 -1.195268
276 1160 -0.695268
276 1161 -0.695267999999999
276 1162 -0.695267999999999
276 1163 -0.695267999999999
276 1164 -0.695268
276 1165 0.804732000000001
276 1166 0.304732000000001
276 1167 -0.361934666666665
276 1168 -0.695268
276 1169 -0.695268
276 1170 -0.695268
276 1171 -0.695268
276 1172 -0.695268
276 1173 -0.695267999999999
276 1174 -0.695267999999999
276 1175 -0.695268
276 1176 -0.695267999999999
276 1177 -0.695268
276 1178 0.304732
276 1179 -0.695268
276 1180 -0.695267999999999
276 1181 0.759277454545454
276 1182 -0.695268
276 1183 -0.695268
276 1184 -0.695268
276 1185 -0.695267999999999
276 1186 -0.695267999999999
276 1187 -0.695268
277 1188 0.492232
278 1189 0.492232
279 1190 -2.257768
279 1191 0.158898666666667
280 1192 0.158898666666667
281 1193 2.292232
282 1194 -0.507768
283 1195 -0.507767999999999
283 1196 -0.507768
283 1197 -0.507768
284 1198 -1.007768
284 1199 -1.007768
285 1200 2.492232
286 1201 -0.841101333333333
286 1202 -0.507767999999999
287 1203 0.292231999999999
288 1204 0.117232
288 1205 0.117232000000001
288 1206 0.117232
288 1207 -2.45419657142857
288 1208 0.117232000000001
288 1209 0.117232
288 1210 0.117232000000001
288 1211 0.117232
289 268 0.3917028994709
289 1212 -0.93633942857143
289 1213 -0.793482285714287
289 1214 -0.293482285714285
289 1215 -0.793482285714285
289 1216 -0.460148952380951
289 1217 -0.793482285714287
290 1218 -0.507768
291 1219 -2.507768
292 1220 -0.707767999999998
292 1221 -0.507767999999999
292 1222 -1.707768
292 1223 -1.707768
292 1224 -2.707768
293 1225 -1.507768
294 1226 1.492232
295 1227 -0.507768
296 1228 -0.00776799999999866
296 1229 -0.00776800000000044
297 1230 0.492232
297 1231 0.492232
298 1232 0.492232
299 1233 2.492232
300 1234 0.742232
301 1235 -0.650625142857143
302 1236 1.492232
302 1237 0.492232
302 1238 0.492232
302 1239 0.492232
303 1240 3.06366057142857
303 1241 1.56366057142857
303 1242 0.563660571428571
303 1243 2.06366057142857
303 1244 0.863660571428571
303 1245 2.06366057142857
303 1246 2.06366057142857
304 568 1.867232
304 1247 -0.507767999999999
305 1248 -0.00776800000000044
305 1249 -0.00776800000000044
306 1250 -0.507768
307 673 -0.996656888888889
307 1251 0.127152634920634
307 1252 1.27000977777778
307 1253 -1.12999022222222
307 1254 0.270009777777777
307 1255 1.27000977777778
307 1256 1.27000977777778
307 1257 1.27000977777778
307 1258 1.27000977777778
308 1259 -0.0354359841897249
308 1260 0.355868363636363
308 1261 0.355868363636363
308 1262 -1.47746496969697
308 1263 0.355868363636363
308 1264 0.355868363636363
308 1265 -1.44413163636364
308 1266 -0.0441316363636375
308 1267 -0.810798303030303
308 1268 0.855868363636365
308 1269 -1.3107983030303
308 1270 1.85586836363636
308 1271 0.355868363636363
308 1272 -1.3107983030303
308 1273 -0.644131636363637
308 1274 -1.14413163636364
308 1275 0.355868363636363
308 1276 -0.97746496969697
308 1277 -0.144131636363637
308 1278 0.355868363636363
308 1279 -0.144131636363637
308 1280 -0.444131636363637
309 1281 -0.793482285714287
310 1282 0.492232
311 1207 -0.0791965714285698
312 1283 -1.17443466666666
313 1284 -0.00776800000000044
313 1285 -0.00776800000000044
313 1286 -0.407768000000001
313 1287 1.992232
313 1288 -0.00776800000000044
313 1289 -0.00776800000000044
313 1290 -0.00776800000000044
313 1291 -0.00776800000000044
313 1292 0.492232000000001
313 1293 -1.507768
313 1294 -0.00776800000000044
313 1295 -0.00776800000000044
314 1296 -2.37443466666667
314 1297 0.292231999999999
314 1298 -2.37443466666667
314 1299 0.292232000000002
314 1300 0.292232000000002
315 1301 -2.507768
316 1302 -1.507768
317 1303 0.492232000000001
317 1304 0.492232
317 1305 -0.507768
317 1306 -1.007768
317 1307 0.0922319999999992
317 1308 0.492232
317 1309 0.492232
317 1310 1.742232
318 1311 0.492232
319 1312 -2.507768
320 1313 3.492232
321 1314 -0.257767999999999
321 1315 -0.257767999999999
321 1316 -0.257767999999999
321 1317 -5.457768
322 1318 -1.507768
323 1319 1.492232
323 1320 0.492232
323 1321 1.492232
323 1322 0.992232
324 1323 1.492232
324 1324 1.492232
325 1325 -0.507768
325 1326 -0.00776800000000044
326 1327 -1.507768
327 1328 1.492232
328 1329 -0.936339428571427
329 1330 -1.19443466666667
329 1331 -0.527768
329 1332 -0.527767999999998
329 1333 -0.527768
329 1334 -0.527768
329 1335 -0.527768
329 1336 -0.527767999999998
329 1337 -0.527767999999998
329 1338 -0.327768
329 1339 -0.527768
329 1340 -0.527768
329 1341 0.472232
329 1342 -0.527768
329 1343 -0.527768
329 1344 -0.527768
329 1345 -0.527768
329 1346 -0.527767999999998
329 1347 -0.527767999999998
329 1348 -0.527767999999998
329 1349 -0.527767999999998
329 1350 -0.527767999999998
329 1351 -0.527768
329 1352 -2.527768
329 1353 -1.527768
329 1354 -0.527768
329 1355 -0.527768
329 1356 -0.527767999999998
329 1357 -0.527768
329 1358 -0.527768
329 1359 -0.527767999999998
329 1360 -0.527767999999998
329 1361 -0.527767999999998
329 1362 -0.527768
329 1363 -0.527768
329 1364 -0.527768
329 1365 -0.527767999999998
329 1366 -0.527768
329 1367 -0.527768
329 1368 -0.527767999999998
329 1369 -0.527768
329 1370 -0.527768
329 1371 -0.527767999999998
329 1372 -0.527768
329 1373 -0.527767999999998
329 1374 -0.527767999999998
329 1375 -0.527767999999998
329 1376 -0.527767999999998
329 1377 -0.527768
329 1378 -0.527767999999998
329 1379 -0.527767999999998
330 1380 -0.174434666666667
330 1381 -0.507768
331 1382 0.492232
331 1383 0.492232
331 1384 -0.00776800000000044
332 1385 1.692232
333 1386 -0.00776799999999866
334 1387 -0.841101333333333
334 1388 -0.841101333333334
334 1389 0.408898666666667
335 1390 -0.507768
335 1391 -0.507768
336 1392 0.492232
337 1393 -2.07298539130435
337 1394 -2.07298539130435
337 1395 -1.07298539130435
337 1396 -1.07298539130435
337 1397 -2.07298539130435
337 1398 -2.07298539130435
337 1399 -2.07298539130435
337 1400 -2.07298539130435
337 1401 -1.57298539130435
337 1402 -2.07298539130435
337 1403 -0.40631872463768
337 1404 -2.07298539130435
337 1405 -2.07298539130435
337 1406 -2.07298539130435
337 1407 -2.07298539130435
337 1408 -2.07298539130435
337 1409 -2.07298539130435
337 1410 -2.07298539130435
337 1411 -2.07298539130435
337 1412 -2.07298539130435
337 1413 -2.07298539130435
337 1414 -2.07298539130435
337 1415 -0.0729853913043463
338 1416 -3.57443466666667
338 1417 -0.841101333333333
338 1418 2.492232
339 1419 -0.507768
340 1420 -0.00776800000000044
341 312 -0.674434666666665
341 1421 -1.507768
341 1422 -0.257767999999999
341 1423 -1.507768
342 1424 3.492232
343 1425 1.15889866666667
344 1426 -2.007768
344 1427 -2.007768
345 241 0.830467294117646
345 1428 0.242232
345 1429 -0.924434666666667
345 1430 0.742232
346 1431 -2.507768
346 1432 -2.507768
347 1433 -0.00776799999999866
348 1434 0.908898666666667
349 1435 -2.007768
350 1436 0.492232
351 1437 -0.00776799999999866
351 1438 -0.00776800000000044
352 1439 -0.507768
353 1440 -2.507768
354 1441 -0.174434666666667
354 1442 0.492232
354 1443 -0.174434666666667
355 1444 -2.507768
356 1445 0.492231999999999
356 1446 -0.841101333333334
356 1447 -0.841101333333333
357 1448 -2.07919657142857
357 1449 1.242232
357 1450 0.242232000000001
358 1451 6.492232
359 1452 2.492232
360 1453 3.492232
361 1454 -2.507768
362 1455 -0.174434666666667
362 1456 -0.174434666666667
362 1457 -0.174434666666667
363 1166 0.349374857142859
363 1458 0.349374857142859
363 1459 -0.650625142857143
363 1460 -0.650625142857143
363 1461 -0.650625142857143
363 1462 -0.650625142857143
363 1463 -0.650625142857141
364 1464 -0.507768
365 1465 -0.00776800000000044
365 1466 -0.00776800000000044
366 1467 -1.507768
367 1468 -0.757768
368 1469 0.492232
369 1470 -2.507768
370 1471 2.992232
370 1472 0.992232
370 1473 1.65889866666667
370 1474 0.492232
371 1475 0.492232
372 1476 -0.257767999999999
372 1477 -0.257767999999999
372 1478 -0.257768
372 1479 -0.257768
373 1480 2.492232
374 1481 -0.200075692307693
374 1482 -0.507768
374 1483 1.992232
375 1484 -0.607768
376 1485 -0.507768
377 1025 -0.952212444444443
378 1486 -2.507768
379 1487 -0.507767999999999
380 1488 1.492232
381 1489 -1.34110133333333
381 1490 -1.84110133333333
381 1491 -0.841101333333333
382 1492 -0.507768
383 1493 0.492232
383 1494 0.992232
383 1495 0.492232
383 1496 0.992232
383 1497 0.492232
384 1498 -0.507767999999999
385 920 -0.632767999999999
385 1499 1.617232
385 1500 -1.632768
385 1501 0.136462769230771
385 1502 -0.632767999999999
385 1503 1.03389866666667
385 1504 0.367232
385 1505 -0.632768
386 1506 -1.007768
387 1507 1.242232
387 1508 1.242232
387 1509 1.242232
387 1510 1.242232
388 1511 0.444612952380952
388 1512 -0.355387047619048
388 1513 0.444612952380954
388 1514 0.311279619047619
388 1515 0.444612952380952
388 1516 0.444612952380952
388 1517 -2.18038704761905
388 1518 0.444612952380954
388 1519 1.44461295238095
388 1520 0.444612952380952
388 1521 0.444612952380952
388 1522 -0.412529904761905
388 1523 0.444612952380952
388 1524 0.444612952380952
388 1525 0.444612952380952
388 1526 0.444612952380952
388 1527 -0.555387047619048
388 1528 0.444612952380952
388 1529 0.444612952380952
388 1530 2.44461295238095
388 1531 0.444612952380952
388 1532 0.444612952380952
388 1533 0.444612952380952
388 1534 0.444612952380952
388 1535 0.444612952380952
388 1536 0.444612952380954
388 1537 0.444612952380952
388 1538 0.444612952380952
388 1539 0.444612952380952
388 1540 -0.555387047619048
388 1541 0.444612952380952
388 1542 0.444612952380952
388 1543 -0.555387047619048
388 1544 0.444612952380952
388 1545 0.444612952380952
388 1546 0.444612952380952
388 1547 0.444612952380952
388 1548 0.444612952380952
388 1549 0.444612952380952
388 1550 0.444612952380952
388 1551 0.444612952380952
388 1552 0.444612952380952
388 1553 0.444612952380952
388 1554 0.444612952380952
388 1555 0.244612952380953
388 1556 -0.0553870476190479
388 1557 0.444612952380952
388 1558 0.444612952380952
388 1559 0.444612952380952
388 1560 -0.555387047619048
388 1561 0.444612952380952
388 1562 0.444612952380952
388 1563 0.444612952380952
388 1564 0.444612952380952
388 1565 0.444612952380952
388 1566 0.444612952380952
388 1567 0.444612952380952
388 1568 0.444612952380952
388 1569 0.444612952380952
388 1570 0.444612952380952
388 1571 0.444612952380952
388 1572 0.444612952380952
388 1573 0.444612952380952
389 1574 -0.0411013333333319
390 1280 -0.307768
391 1575 -1.23504072727273
392 237 1.82117936842105
392 1576 -1.22882063157895
392 1577 1.90451270175439
392 1578 0.571179368421053
392 1579 0.571179368421052
392 1580 1.90451270175439
392 1581 0.571179368421053
392 1582 0.571179368421052
392 1583 0.571179368421052
392 1584 -1.92882063157895
392 1585 0.0711793684210518
392 1586 -1.67882063157895
392 1587 0.571179368421053
392 1588 0.571179368421053
392 1589 0.571179368421053
392 1590 0.571179368421053
392 1591 0.571179368421053
392 1592 0.571179368421052
392 1593 -2.42882063157895
392 1594 0.571179368421053
392 1595 -0.0288206315789479
392 1596 0.0711793684210527
392 1597 0.571179368421053
392 1598 0.571179368421052
392 1599 0.571179368421052
392 1600 0.571179368421052
392 1601 0.571179368421052
392 1602 0.571179368421052
392 1603 0.571179368421052
392 1604 0.571179368421052
392 1605 0.571179368421053
392 1606 0.571179368421052
392 1607 0.571179368421052
392 1608 0.571179368421052
392 1609 0.571179368421052
392 1610 0.571179368421052
392 1611 -2.92882063157895
392 1612 0.571179368421052
393 1613 -1.507768
393 1614 1.492232
393 1615 0.158898666666667
394 1616 -0.507768
395 1617 -2.507768
396 1618 1.492232
397 1619 -0.507768
398 1620 -2.507768
399 1621 1.492232
399 1622 1.492232
400 1623 0.892232
400 1624 -0.607768
400 1625 0.892232
400 1626 0.892232
400 1627 -0.107768
401 1628 -2.507768
402 1629 -0.507768
403 1630 2.492232
404 1631 -0.207767999999998
404 1632 -0.707768
404 1633 -0.707768
404 1634 -0.707767999999998
404 1635 -0.707768
405 1040 2.852232
406 1636 0.953770461538461
407 1637 0.492232
408 1638 0.492232
409 1639 0.825565333333333
409 1640 0.825565333333333
409 1641 0.825565333333333
410 1642 0.492232
411 1643 -0.290376695652174
412 1644 1.492232
413 799 -0.674434666666665
413 1645 0.992232
414 891 -0.807768000000001
415 951 -0.882767999999999
416 1646 2.492232
416 1647 2.492232
416 1648 2.492232
416 1649 2.492232
417 1128 -0.507768
418 247 0.212231999999999
419 1650 0.492232
420 1651 -2.007768
421 1652 1.492232
422 1653 0.569155076923076
422 1654 0.569155076923076
422 1655 -1.7035721958042
422 1656 0.569155076923076
422 1657 0.569155076923076
422 1658 0.569155076923076
422 1659 0.569155076923076
422 1660 0.819155076923076
422 1661 -0.430844923076924
422 1662 -0.0975115897435899
422 1663 0.569155076923078
422 1664 0.569155076923078
422 1665 0.569155076923076
423 1666 -0.174434666666666
424 1667 -1.757768
424 1668 -2.007768
425 1669 2.492232
426 1670 0.492232
427 1671 -1.84110133333333
427 1672 -0.674434666666666
427 1673 -0.341101333333334
427 1674 -1.84110133333333
427 1675 0.958898666666667
427 1676 -1.84110133333333
428 1677 0.117232000000001
429 1678 -2.507768
429 1679 -2.507768
430 1155 -2.17443466666666
431 1680 -0.00776799999999866
431 1681 -0.00776800000000044
432 1682 2.492232
433 1683 1.617232
433 1684 1.617232
433 1685 0.902946285714285
433 1686 1.617232
433 1687 0.760089142857143
433 1688 1.617232
433 1689 -0.0494346666666674
433 1690 0.367232
433 1691 0.867232
433 1692 1.617232
433 1693 1.617232
433 1694 1.617232
433 1695 0.617232
433 1696 1.617232
433 1697 -0.811339428571429
433 1698 1.617232
434 1699 -1.507768
435 1700 0.158898666666667
436 1701 -1.507768
437 1702 1.82556533333333
437 1703 1.07556533333333
437 1704 -0.374434666666667
438 1705 1.25889866666667
438 1706 2.15889866666667
438 1707 0.658898666666666
439 1708 0.492232
440 1691 0.942232000000001
440 1709 -0.307768
440 1710 -0.307768
440 1711 -1.307768
440 1712 -0.807768
441 1713 -2.507768
442 1714 -1.507768
443 1715 0.492232
444 28 0.594796102564104
444 1716 -0.674434666666667
444 1717 -0.341101333333334
445 1718 0.492232
446 1719 -2.007768
447 1720 -0.952212444444445
448 1034 -1.12315261538461
449 1721 2.82556533333333
449 1722 1.15889866666667
449 1723 1.15889866666667
450 1724 0.492232
451 1725 -0.507768
452 1726 1.82556533333333
452 1727 1.32556533333333
452 1728 1.07556533333333
452 1729 1.82556533333333
452 1730 1.82556533333333
452 1731 1.82556533333333
453 1732 -0.507768
454 1733 0.992232
454 1734 0.992232
454 1735 0.992232
454 1736 0.992232
455 1737 0.992232
456 1738 -0.553222545454544
456 1739 -0.553222545454544
456 1740 -0.553222545454545
456 1741 -0.553222545454544
456 1742 -0.553222545454545
456 1743 -2.05322254545455
456 1744 -0.553222545454544
456 1745 -0.553222545454544
456 1746 -1.05322254545455
456 1747 0.113444121212122
456 1748 0.246777454545457
456 1749 0.446777454545456
456 1750 0.946777454545456
456 1751 -0.553222545454545
456 1752 -0.553222545454545
456 1753 0.78011078787879
456 1754 -0.553222545454544
456 1755 -0.553222545454545
456 1756 -0.553222545454545
456 1757 -0.553222545454545
456 1758 0.113444121212122
456 1759 0.446777454545455
457 1760 0.492232
458 1761 -0.507768
459 1762 -2.04110133333333
459 1763 -1.207768
459 1764 1.292232
459 1765 1.292232
459 1766 1.292232
460 1767 -0.507768
460 1768 -0.507768
460 1769 -0.507768
461 1770 0.658898666666669
461 1771 -1.007768
461 1772 0.658898666666667
461 1773 0.658898666666667
461 1774 0.658898666666666
461 1775 0.658898666666666
462 1280 -0.307768
463 1776 1.992232
463 1777 -0.507768
463 1778 2.492232
463 1779 1.992232
464 1780 -0.174434666666666
465 1781 2.492232
466 1782 -0.841101333333333
466 1783 -0.841101333333334
466 1784 -0.841101333333333
466 1785 -0.841101333333333
466 1786 -0.507768000000001
466 1787 -2.17443466666667
467 1788 -0.907768000000001
468 1789 0.10142740229885
468 1790 0.101427402298853
468 1791 0.101427402298853
468 1792 0.10142740229885
468 1793 0.10142740229885
468 1794 -0.698572597701149
468 1795 1.65698295785441
468 1796 0.10142740229885
468 1797 0.10142740229885
468 1798 0.10142740229885
468 1799 0.10142740229885
468 1800 0.101427402298853
468 1801 0.10142740229885
468 1802 0.101427402298853
468 1803 0.10142740229885
468 1804 0.10142740229885
468 1805 0.10142740229885
468 1806 0.101427402298853
468 1807 0.101427402298853
468 1808 0.10142740229885
468 1809 0.10142740229885
468 1810 0.10142740229885
468 1811 0.10142740229885
468 1812 0.10142740229885
468 1813 0.10142740229885
468 1814 0.10142740229885
468 1815 0.10142740229885
468 1816 0.101427402298853
468 1817 0.10142740229885
468 1818 0.10142740229885
468 1819 0.10142740229885
468 1820 0.101427402298853
468 1821 0.10142740229885
468 1822 0.10142740229885
468 1823 0.10142740229885
468 1824 0.10142740229885
468 1825 0.101427402298853
468 1826 0.10142740229885
468 1827 0.101427402298853
468 1828 0.10142740229885
468 1829 -2.89857259770115
468 1830 0.10142740229885
468 1831 0.10142740229885
468 1832 0.101427402298853
468 1833 0.10142740229885
468 1834 0.301427402298851
468 1835 1.10142740229885
468 1836 0.10142740229885
468 1837 0.10142740229885
468 1838 0.10142740229885
468 1839 -0.89857259770115
468 1840 -0.89857259770115
468 1841 0.10142740229885
468 1842 0.10142740229885
468 1843 2.10142740229885
468 1844 0.10142740229885
468 1845 0.101427402298853
468 1846 0.10142740229885
468 1847 2.60142740229885
468 1848 0.101427402298853
468 1849 0.10142740229885
468 1850 0.10142740229885
468 1851 1.10142740229885
468 1852 0.10142740229885
468 1853 0.35142740229885
468 1854 0.10142740229885
468 1855 0.10142740229885
468 1856 0.10142740229885
468 1857 1.10142740229885
468 1858 0.10142740229885
468 1859 0.101427402298853
468 1860 0.976427402298853
468 1861 0.101427402298853
468 1862 0.10142740229885
468 1863 0.10142740229885
468 1864 0.101427402298853
468 1865 0.101427402298853
468 1866 0.101427402298853
468 1867 0.101427402298853
468 1868 0.101427402298853
468 1869 0.10142740229885
468 1870 0.10142740229885
468 1871 -1.39857259770115
468 1872 0.10142740229885
468 1873 0.10142740229885
468 1874 0.101427402298853
468 1875 0.10142740229885
469 1876 -0.507768
470 1877 -0.00776800000000044
470 1878 1.492232
471 1879 -2.507768
472 1880 0.492232
473 1881 -2.507768
474 1416 -0.907767999999999
475 1034 -1.12315261538461
476 1882 -1.007768
477 1883 -1.507768
478 1884 0.492232
479 1885 0.992232
479 1886 2.32556533333333
479 1887 0.992232
479 1888 0.992232
480 1889 -0.174434666666667
480 1890 -0.841101333333333
480 1891 0.825565333333333
481 1892 0.492232
482 1893 -0.707767999999998
482 1894 -0.707767999999998
482 1895 1.292232
482 1896 -0.707768
482 1897 -0.707768
483 1898 0.492232000000001
483 1899 0.492232
484 1900 0.492232
485 638 -1.31729180952381
486 1901 0.149374857142856
486 1902 0.349374857142856
486 1903 0.349374857142856
486 1904 -0.317291809523811
486 1905 0.349374857142855
486 1906 0.349374857142855
486 1907 0.349374857142856
487 1908 2.992232
487 1909 2.992232
488 1910 -0.107768
488 1911 -0.107767999999998
488 1912 -0.107768
488 1913 -1.107768
488 1914 -0.107768
489 1915 3.492232
490 1916 0.492232
491 1917 0.992232
492 1918 -0.707768
492 1919 1.492232
493 1920 1.492232
494 1921 1.32556533333334
494 1922 1.15889866666667
494 1923 -1.17443466666667
495 1924 0.992232
496 1925 -0.507768
497 1926 -2.507768
498 1240 -3.43633942857143
498 1927 -1.43633942857143
498 1928 -1.43633942857143
498 1929 -0.364910857142856
498 1930 0.563660571428573
498 1931 -0.603006095238096
498 1932 -1.43633942857143
498 1933 -1.43633942857143
498 1934 -1.43633942857143
498 1935 -1.43633942857143
498 1936 -1.43633942857143
498 1937 -1.43633942857143
498 1938 -1.43633942857143
498 1939 -1.43633942857143
498 1940 -1.43633942857143
498 1941 -1.43633942857143
498 1942 -1.43633942857143
498 1943 -1.43633942857143
498 1944 1.29699390476191
498 1945 -1.43633942857143
498 1946 -0.436339428571427
498 1947 -1.43633942857143
498 1948 -2.29348228571429
498 1949 -1.43633942857143
498 1950 -1.43633942857143
498 1951 -1.43633942857143
498 1952 -1.43633942857143
498 1953 -1.43633942857143
499 1954 0.617232
499 1955 1.117232
499 1956 0.617232
499 1957 0.617232
499 1958 0.617232
499 1959 0.617232
499 1960 0.617232
499 1961 0.617232000000001
500 1962 -0.507768
501 1963 -0.00776800000000044
501 1964 -0.00776800000000044
502 1965 -0.174434666666667
502 1966 -1.507768
503 1967 0.492232
504 1968 0.992232000000001
504 1969 0.992232
505 1970 -0.507768
506 1971 1.492232
506 1972 1.492232
507 1216 -1.17443466666666
508 1973 0.742232
508 1974 -0.757767999999999
508 1975 -0.472053714285715
508 1976 -0.757768
509 1977 0.492232
510 1978 -0.507768
510 1979 4.492232
511 1980 -0.78227780392157
511 1981 -0.782277803921568
511 1982 -0.782277803921568
511 1983 -0.78227780392157
511 1984 -0.78227780392157
511 1985 -0.782277803921568
511 1986 -0.782277803921568
511 1987 -0.782277803921568
511 1988 -0.782277803921568
511 1989 -0.782277803921568
511 1990 -0.782277803921568
511 1991 -0.782277803921568
511 1992 -0.782277803921568
511 1993 -0.782277803921568
511 1994 -0.782277803921568
511 1995 1.71772219607843
511 1996 -0.782277803921568
511 1997 1.71772219607843
511 1998 -4.78227780392157
511 1999 -0.782277803921568
511 2000 -0.782277803921568
511 2001 -0.782277803921568
511 2002 -0.78227780392157
511 2003 -0.782277803921568
511 2004 1.21772219607843
511 2005 -0.782277803921568
511 2006 -0.78227780392157
511 2007 -0.78227780392157
511 2008 -0.782277803921568
511 2009 -0.782277803921568
511 2010 -0.782277803921568
511 2011 -2.78227780392157
511 2012 -0.78227780392157
511 2013 -0.782277803921568
511 2014 -0.78227780392157
511 2015 -2.28227780392157
511 2016 -0.782277803921568
511 2017 -0.782277803921568
511 2018 -0.78227780392157
511 2019 -4.28227780392157
511 2020 -0.78227780392157
511 2021 -0.782277803921568
511 2022 -0.782277803921568
511 2023 -0.782277803921568
511 2024 -0.78227780392157
511 2025 -0.782277803921568
511 2026 -0.782277803921568
511 2027 -0.78227780392157
511 2028 -0.782277803921568
511 2029 -0.782277803921568
511 2030 -0.78227780392157
512 2031 0.992232
513 2032 0.492232
514 2033 -1.007768
515 2034 -0.507768
516 2035 -0.507768
517 2036 -0.507768
517 2037 -0.507768
517 2038 -0.507768
518 2039 -0.00776800000000044
519 2040 0.692232
519 2041 2.692232
519 2042 0.692232000000001
519 2043 0.692232
519 2044 0.692232
520 1416 -0.907768000000001
521 2045 -1.17443466666667
522 2046 -1.757768
523 2047 -1.507768
524 2048 -0.507768
525 2049 0.492232
526 2050 3.492232
527 2051 -0.507768
528 2052 -0.507768
529 2053 -0.507768
530 2054 0.492232
531 2055 0.492232
532 2056 0.492232
532 2057 0.492232
532 2058 0.492232
533 2059 -2.507768
534 2060 -1.507768
535 2061 0.492232
536 2062 2.492232
537 2063 -0.174434666666666
538 2064 -0.132768
538 2065 -0.132767999999999
538 2066 -0.132768
538 2067 -0.132768
538 2068 -0.132767999999999
538 2069 -0.132768
538 2070 -0.132768
538 2071 -0.132768
539 2072 -2.507768
540 2073 2.492232
541 1073 -0.174434666666668
541 2074 0.158898666666667
541 2075 0.158898666666667
542 2076 -0.507768
542 2077 -0.507768
542 2078 -0.507767999999999
542 2079 -0.507767999999999
542 2080 -0.507768
542 2081 -0.507768
543 2082 -0.424434666666667
543 2083 1.07556533333333
543 2084 -0.924434666666667
543 2085 3.47556533333333
543 2086 1.07556533333333
543 2087 1.07556533333333
543 2088 1.07556533333333
543 2089 1.07556533333333
543 2090 1.07556533333333
543 2091 1.07556533333333
543 2092 1.07556533333333
543 2093 1.07556533333333
544 2094 1.71445422222222
544 2095 0.0144542222222217
544 2096 -1.61887911111111
544 2097 -0.285545777777778
544 2098 1.71445422222222
544 2099 -0.285545777777778
544 2100 0.214454222222222
544 2101 -0.285545777777778
544 2102 -0.285545777777778
545 2103 -1.507768
546 2104 0.825565333333333
547 2105 -0.235040727272728
547 2106 0.412231999999999
548 2107 -0.161614153846155
548 2108 -0.161614153846152
548 2109 -0.161614153846155
548 2110 -0.161614153846155
548 2111 -0.161614153846152
548 2112 -0.161614153846155
548 2113 -0.161614153846152
548 2114 -0.161614153846155
548 2115 -0.161614153846152
548 2116 -0.161614153846152
548 2117 -0.161614153846155
548 2118 -0.161614153846155
548 2119 -0.161614153846155
548 2120 -0.161614153846155
548 2121 -0.161614153846152
548 2122 -0.161614153846155
548 2123 -0.161614153846152
548 2124 -0.161614153846152
548 2125 -0.161614153846155
548 2126 -0.161614153846152
548 2127 -0.161614153846155
548 2128 -0.161614153846155
548 2129 -0.161614153846155
548 2130 -0.161614153846155
548 2131 -0.161614153846155
548 2132 -0.161614153846152
549 2133 -2.35221244444444
549 2134 -2.35221244444444
549 2135 -1.35221244444444
549 2136 -2.35221244444444
549 2137 -2.35221244444444
549 2138 -1.35221244444444
549 2139 -0.352212444444444
549 2140 -2.35221244444444
549 2141 -0.0522124444444438
549 2142 -2.35221244444444
549 2143 -2.35221244444445
549 2144 -2.35221244444444
549 2145 -1.85221244444444
549 2146 -2.35221244444444
549 2147 -2.35221244444444
549 2148 -1.35221244444444
549 2149 -1.85221244444444
549 2150 -1.35221244444444
549 2151 -2.35221244444444
549 2152 -2.35221244444444
549 2153 -2.35221244444444
549 2154 -2.35221244444444
549 2155 -2.35221244444444
549 2156 -2.35221244444444
549 2157 -2.35221244444444
549 2158 -2.35221244444444
549 2159 -2.35221244444444
549 2160 -1.85221244444444
549 2161 -2.35221244444444
549 2162 -2.35221244444444
549 2163 -2.35221244444444
549 2164 -2.35221244444444
549 2165 -2.35221244444444
549 2166 -2.35221244444444
549 2167 -2.35221244444444
549 2168 -2.35221244444444
549 2169 -2.35221244444444
549 2170 -2.35221244444444
549 2171 -2.35221244444444
549 2172 -2.35221244444444
549 2173 -2.35221244444444
549 2174 -2.35221244444444
549 2175 -2.35221244444444
549 2176 -1.85221244444444
549 2177 -2.35221244444445
550 2178 -1.19030768253968
550 2179 -1.19030768253968
550 2180 -0.523641015873014
550 2181 -1.19030768253968
550 2182 -1.19030768253968
550 2183 -1.19030768253968
550 2184 -1.19030768253968
550 2185 -1.19030768253968
550 2186 -0.190307682539681
550 2187 -0.690307682539682
550 2188 -1.19030768253968
550 2189 -1.19030768253968
550 2190 -1.19030768253968
550 2191 -1.19030768253968
550 2192 -1.85697434920635
550 2193 -1.19030768253968
550 2194 -1.19030768253968
550 2195 -1.19030768253968
550 2196 0.309692317460318
550 2197 -1.19030768253968
550 2198 -1.19030768253968
550 2199 -1.19030768253968
550 2200 -3.57492306715507
550 2201 -1.19030768253968
550 2202 -1.19030768253968
550 2203 -1.19030768253968
550 2204 -1.19030768253968
550 2205 -0.690307682539681
550 2206 -1.19030768253968
550 2207 -1.19030768253968
550 2208 -1.19030768253968
550 2209 -1.19030768253968
550 2210 -1.19030768253968
550 2211 -0.690307682539681
550 2212 -1.19030768253968
550 2213 -1.19030768253968
550 2214 -1.19030768253968
550 2215 -1.19030768253968
550 2216 -2.19030768253968
550 2217 -1.19030768253968
550 2218 -0.856974349206349
550 2219 -1.19030768253968
550 2220 -1.19030768253968
550 2221 -1.19030768253968
550 2222 -1.19030768253968
550 2223 -1.19030768253968
550 2224 -1.19030768253968
550 2225 -1.19030768253968
550 2226 -1.19030768253968
550 2227 -1.19030768253968
550 2228 -1.19030768253968
550 2229 -1.69030768253968
550 2230 -1.19030768253968
550 2231 -1.19030768253968
550 2232 -1.19030768253968
550 2233 0.309692317460319
550 2234 -1.19030768253968
550 2235 -1.19030768253968
550 2236 -1.19030768253968
550 2237 -1.19030768253968
550 2238 -0.690307682539682
550 2239 -1.19030768253968
550 2240 -1.19030768253968
550 2241 -1.19030768253968
550 2242 -1.19030768253968
550 2243 -1.19030768253968
550 2244 0.309692317460319
550 2245 -1.19030768253968
550 2246 -1.19030768253968
550 2247 -1.19030768253968
550 2248 -1.19030768253968
550 2249 -1.19030768253968
550 2250 1.14302565079365
550 2251 -1.19030768253968
550 2252 -1.19030768253968
550 2253 -1.19030768253968
550 2254 -1.19030768253968
550 2255 -0.690307682539681
550 2256 -1.19030768253968
550 2257 -1.19030768253968
550 2258 -1.19030768253968
550 2259 -0.856974349206347
550 2260 -1.19030768253968
550 2261 -1.19030768253968
550 2262 -1.19030768253968
550 2263 -1.19030768253968
550 2264 -0.690307682539681
550 2265 -0.190307682539681
550 2266 -0.690307682539681
550 2267 -0.190307682539681
550 2268 -1.19030768253968
550 2269 -1.19030768253968
550 2270 -1.19030768253968
550 2271 0.309692317460319
550 2272 -1.19030768253968
550 2273 -1.19030768253968
550 2274 -1.19030768253968
550 2275 -1.19030768253968
550 2276 -1.19030768253968
550 2277 -1.19030768253968
550 2278 -1.19030768253968
550 2279 -1.19030768253968
550 2280 -1.19030768253968
550 2281 -1.19030768253968
550 2282 -1.19030768253968
550 2283 -1.19030768253968
550 2284 -1.19030768253968
550 2285 -1.19030768253968
550 2286 -1.19030768253968
550 2287 -1.19030768253968
550 2288 -1.19030768253968
550 2289 -1.19030768253968
550 2290 -1.19030768253968
550 2291 -1.19030768253968
550 2292 -1.19030768253968
550 2293 -1.19030768253968
550 2294 -1.19030768253968
550 2295 -1.19030768253968
550 2296 -1.19030768253968
550 2297 -1.19030768253968
550 2298 -1.19030768253968
550 2299 -1.19030768253968
550 2300 -1.19030768253968
550 2301 -1.19030768253968
550 2302 -1.19030768253968
550 2303 -1.19030768253968
551 2304 -0.507768
552 2305 -1.007768
552 2306 1.82556533333333
553 2307 -0.507768
554 2308 1.93667644444444
554 2309 1.93667644444444
554 2310 1.93667644444444
554 2311 1.93667644444444
554 2312 0.936676444444444
554 2313 1.93667644444444
554 2314 1.93667644444444
554 2315 -3.72999022222222
554 2316 0.936676444444444
555 2317 -2.507768
556 2318 1.492232
557 2319 -0.507768
557 2320 -0.507767999999999
558 2321 -0.507768
559 2322 0.992232000000001
560 2323 -1.507768
561 2324 3.492232
562 2325 -1.507768
563 2326 -0.507768
564 2327 -2.507768
565 460 -1.757768
565 2328 -1.507768
566 2329 2.492232
567 2330 -0.507768
568 2331 0.315761411764704
568 2332 0.315761411764705
568 2333 0.315761411764704
568 2334 0.315761411764705
568 2335 0.315761411764705
568 2336 0.315761411764705
568 2337 0.315761411764705
568 2338 0.649094745098042
568 2339 0.315761411764705
568 2340 0.815761411764705
568 2341 0.315761411764705
568 2342 0.315761411764705
568 2343 0.315761411764705
568 2344 0.315761411764704
568 2345 0.315761411764704
568 2346 0.315761411764704
568 2347 0.315761411764705
569 2348 0.252232000000001
570 2349 -0.757768
570 2350 0.242232000000001
570 2351 0.242232
570 2352 0.242232
571 2353 -2.007768
572 1484 -0.607768
573 2354 -1.57919657142857
573 2355 -1.57919657142857
573 2356 -1.57919657142857
573 2357 -1.57919657142857
573 2358 -1.57919657142857
573 2359 -1.57919657142857
573 2360 -1.07919657142857
573 2361 -1.57919657142857
573 2362 -1.57919657142857
573 2363 -1.57919657142857
573 2364 -1.57919657142857
573 2365 -1.57919657142857
573 2366 -1.57919657142857
573 2367 -1.57919657142857
574 2368 -0.507768
575 2369 0.492232
576 2370 1.692232
576 2371 1.692232
576 2372 2.192232
576 2373 1.692232
576 2374 -0.641101333333334
577 1025 -0.952212444444443
578 2375 -0.00776800000000044
579 2376 -0.786118515463919
579 2377 -0.786118515463919
579 2378 -0.286118515463917
579 2379 -0.786118515463919
579 2380 1.71388148453608
579 2381 -0.786118515463917
579 2382 2.71388148453608
579 2383 -0.786118515463917
579 2384 2.61388148453608
579 2385 0.713881484536083
579 2386 1.71388148453608
579 2387 -0.786118515463917
579 2388 1.21388148453608
579 2389 -0.786118515463919
579 2390 -0.786118515463919
579 2391 -0.786118515463919
579 2392 -0.786118515463919
579 2393 -0.786118515463919
579 2394 -0.786118515463919
579 2395 -0.786118515463919
579 2396 -0.786118515463917
579 2397 -0.786118515463917
579 2398 -0.786118515463919
579 2399 -0.786118515463919
579 2400 -0.786118515463919
579 2401 -0.786118515463919
579 2402 -0.786118515463919
579 2403 -0.786118515463919
579 2404 -0.786118515463917
579 2405 -0.786118515463919
579 2406 -0.786118515463919
579 2407 -0.786118515463919
579 2408 -0.786118515463919
579 2409 -0.786118515463917
579 2410 -0.786118515463919
579 2411 -0.786118515463919
579 2412 -0.786118515463917
579 2413 -0.786118515463917
579 2414 -0.786118515463919
579 2415 -0.286118515463917
579 2416 -0.786118515463917
579 2417 -0.786118515463919
579 2418 -0.119451848797251
579 2419 -0.786118515463917
579 2420 -0.119451848797252
579 2421 -2.45278518213059
579 2422 -3.45278518213059
579 2423 -0.786118515463917
579 2424 -0.786118515463917
579 2425 -0.786118515463917
579 2426 -0.786118515463917
579 2427 -0.786118515463919
579 2428 -0.786118515463919
579 2429 -0.786118515463919
579 2430 -0.786118515463919
579 2431 -0.786118515463919
579 2432 -0.786118515463917
579 2433 -0.786118515463919
579 2434 0.213881484536083
579 2435 -0.786118515463917
579 2436 1.21388148453608
579 2437 -0.786118515463917
579 2438 -0.786118515463917
579 2439 -0.786118515463919
579 2440 -0.786118515463919
579 2441 -0.786118515463919
579 2442 -0.786118515463919
579 2443 -0.786118515463919
579 2444 -0.786118515463919
579 2445 -0.786118515463919
579 2446 -0.786118515463917
579 2447 -0.786118515463917
579 2448 -0.786118515463917
579 2449 -0.786118515463919
579 2450 -0.786118515463919
579 2451 -0.786118515463919
579 2452 -0.786118515463917
579 2453 -0.786118515463917
579 2454 -2.78611851546392
579 2455 -0.786118515463919
579 2456 -0.786118515463919
579 2457 -0.786118515463917
579 2458 -0.786118515463919
579 2459 -0.786118515463919
579 2460 -0.286118515463917
579 2461 -0.786118515463919
579 2462 -0.786118515463917
579 2463 0.713881484536083
579 2464 -0.786118515463917
579 2465 -0.786118515463919
579 2466 -0.786118515463919
579 2467 -0.786118515463917
579 2468 -0.786118515463919
579 2469 -0.786118515463919
579 2470 -0.786118515463917
579 2471 -0.786118515463917
579 2472 -0.786118515463919
580 2473 -0.841101333333334
581 2474 -0.507768
582 2475 0.992232
583 2348 0.252231999999999
584 2476 -0.507768
585 2477 -0.507768
586 2478 0.117232
586 2479 0.117232
586 2480 0.117232000000001
586 2481 -2.882768
586 2482 0.117232
586 2483 0.117232000000001
586 2484 0.117232
586 2485 0.117232
587 2486 -0.882767999999999
587 2487 -0.882768
587 2488 -0.882767999999999
587 2489 -0.882767999999999
587 2490 -0.882767999999999
587 2491 -0.882768
587 2492 -0.882768
587 2493 -0.882768
588 2494 0.492232
588 2495 0.492232
589 2496 1.492232
589 2497 0.492232
589 2498 0.492232
590 2499 -0.507768
591 2500 -2.107768
591 2501 -2.107768
591 2502 0.692232000000002
591 2503 1.142232
591 2504 -0.774434666666667
592 2505 1.492232
593 2506 -0.507768
594 1685 -0.222053714285715
595 1491 -0.841101333333333
595 2507 -0.341101333333333
595 2508 0.158898666666666
596 2509 1.492232
597 2510 0.492232
597 2511 0.492232
598 2512 0.0922319999999992
599 2513 -0.00776800000000044
599 2514 -0.00776800000000044
600 2515 -1.04110133333333
600 2516 0.158898666666669
600 2517 0.158898666666667
601 2518 0.825565333333333
602 2519 -0.152504842105262
602 2520 -1.40250484210526
602 2521 -1.40250484210526
602 2522 -0.402504842105264
602 2523 -1.40250484210526
602 2524 -0.402504842105262
602 2525 -1.40250484210526
602 2526 -1.40250484210526
602 2527 -0.902504842105262
602 2528 -1.40250484210526
602 2529 -0.402504842105262
602 2530 -1.40250484210526
602 2531 -1.90250484210526
602 2532 -1.40250484210526
602 2533 -1.40250484210526
602 2534 -1.40250484210526
602 2535 -1.40250484210526
602 2536 -1.40250484210526
602 2537 -1.40250484210526
603 2538 -0.507768
604 311 0.26146276923077
605 2539 0.658898666666667
605 2540 -0.341101333333334
605 2541 0.658898666666667
605 2542 0.658898666666669
605 2543 0.658898666666667
605 2544 0.658898666666667
606 2545 0.492232
607 2546 -0.507768
608 2547 0.27000977777778
608 2548 -0.729990222222222
608 2549 -0.729990222222222
608 2550 0.27000977777778
608 2551 0.270009777777778
608 2552 -0.729990222222222
608 2553 -0.72999022222222
608 2554 -0.729990222222222
608 2555 -0.729990222222222
609 304 -1.84110133333333
610 1059 -0.407767999999999
611 2556 0.992232
611 2557 -0.757768
612 2105 -0.235040727272726
613 2558 -0.507768
613 2559 -0.507768
613 2560 -0.507768
613 2561 -0.507768
614 2562 0.992232
615 2563 -0.107768
616 2564 -0.507768
617 2565 -1.007768
617 2566 -1.007768
618 2567 2.492232
619 2568 0.492232
620 2569 -1.507768
621 2570 -1.507768
622 2571 5.492232
623 2572 -2.507768
623 2573 -0.841101333333333
624 2574 -0.00776800000000044
624 2575 -0.00776800000000044
625 2576 -1.707768
626 2577 0.0636605714285707
627 2578 -0.00776800000000044
627 2579 1.992232
628 2580 -0.507768
629 2581 -0.507768
630 2576 -1.707768
631 2582 -0.785545777777777
631 2583 -0.785545777777777
631 2584 -0.118879111111112
631 2585 -0.785545777777779
631 2586 -0.785545777777777
631 2587 -0.785545777777779
631 2588 -0.785545777777779
631 2589 -0.785545777777777
631 2590 -0.785545777777779
631 2591 -0.785545777777777
631 2592 -0.785545777777777
631 2593 -0.785545777777777
631 2594 -0.785545777777777
631 2595 -1.78554577777778
631 2596 0.881120888888889
631 2597 -0.785545777777777
631 2598 -0.785545777777777
631 2599 -0.785545777777779
631 2600 -0.785545777777777
631 2601 0.214454222222223
631 2602 -0.785545777777777
631 2603 -0.785545777777777
631 2604 -0.785545777777779
631 2605 -0.785545777777777
631 2606 -0.785545777777777
631 2607 -0.785545777777779
631 2608 -0.785545777777779
631 2609 2.71445422222222
631 2610 -0.785545777777779
631 2611 -0.785545777777779
631 2612 -1.28554577777778
631 2613 -0.785545777777777
631 2614 -0.785545777777777
631 2615 -0.785545777777777
631 2616 1.01445422222222
631 2617 -0.785545777777779
631 2618 -0.785545777777779
631 2619 -0.285545777777777
631 2620 0.714454222222223
631 2621 -0.785545777777779
631 2622 -0.785545777777779
631 2623 -0.785545777777779
631 2624 -1.28554577777778
631 2625 -0.785545777777779
631 2626 -0.785545777777777
631 2627 -0.785545777777779
631 2628 -0.785545777777777
631 2629 -0.785545777777779
631 2630 -0.785545777777779
631 2631 -0.785545777777777
631 2632 -0.785545777777777
631 2633 -0.785545777777777
631 2634 -0.785545777777779
631 2635 -0.785545777777779
631 2636 -0.785545777777779
631 2637 -0.785545777777777
631 2638 -0.785545777777777
631 2639 -0.785545777777779
631 2640 -0.785545777777779
631 2641 -0.785545777777779
631 2642 -0.785545777777777
631 2643 -0.785545777777777
631 2644 -2.58554577777778
631 2645 -0.785545777777779
631 2646 -0.785545777777779
631 2647 -0.785545777777777
631 2648 -0.118879111111112
631 2649 1.41445422222222
631 2650 0.785882793650794
631 2651 -0.785545777777779
631 2652 -0.785545777777777
631 2653 -0.785545777777777
631 2654 -0.785545777777777
631 2655 -0.785545777777777
631 2656 -0.785545777777779
631 2657 -0.785545777777777
631 2658 0.714454222222223
631 2659 -1.78554577777778
631 2660 -0.785545777777777
631 2661 -0.785545777777779
631 2662 -0.385545777777777
631 2663 1.21445422222222
631 2664 -0.785545777777779
631 2665 -0.785545777777779
631 2666 -0.785545777777777
631 2667 -0.785545777777777
631 2668 -0.785545777777777
631 2669 -0.785545777777777
631 2670 -0.785545777777777
631 2671 -0.785545777777779
631 2672 -0.785545777777777
631 2673 -0.785545777777779
631 2674 -0.785545777777777
631 2675 -0.785545777777777
631 2676 -0.785545777777779
631 2677 -0.785545777777779
631 2678 -0.785545777777777
631 2679 -0.785545777777777
631 2680 -0.785545777777777
631 2681 -0.785545777777779
631 2682 -0.785545777777777
631 2683 -0.785545777777777
631 2684 -0.785545777777777
631 2685 -0.785545777777779
631 2686 -0.785545777777777
631 2687 -0.785545777777777
631 2688 -0.785545777777777
631 2689 -0.785545777777779
631 2690 -0.785545777777777
631 2691 -0.785545777777779
631 2692 -0.785545777777777
631 2693 -0.785545777777779
631 2694 -0.785545777777777
631 2695 -0.785545777777777
631 2696 -0.785545777777779
631 2697 -0.785545777777779
631 2698 -0.785545777777779
631 2699 -0.785545777777779
631 2700 -0.785545777777777
631 2701 -0.785545777777777
631 2702 -0.785545777777779
631 2703 -0.785545777777779
631 2704 1.88112088888889
631 2705 -0.785545777777779
631 2706 -0.785545777777779
631 2707 -0.785545777777779
631 2708 1.01445422222222
631 2709 1.54778755555556
631 2710 -0.285545777777779
631 2711 -0.785545777777779
631 2712 -0.785545777777779
631 2713 -0.285545777777777
631 2714 -0.785545777777777
631 2715 -0.785545777777777
631 2716 -0.785545777777777
631 2717 -0.785545777777779
631 2718 -0.785545777777777
631 2719 -0.785545777777777
631 2720 -0.785545777777777
631 2721 -0.785545777777777
631 2722 -2.28554577777778
631 2723 -0.785545777777777
631 2724 -0.785545777777777
631 2725 -0.785545777777777
631 2726 -0.785545777777777
631 2727 -0.785545777777779
631 2728 -0.785545777777779
631 2729 -1.28554577777778
631 2730 -0.785545777777777
631 2731 -0.785545777777779
631 2732 -0.785545777777779
631 2733 -0.785545777777779
631 2734 -0.785545777777779
631 2735 -0.785545777777779
631 2736 1.21445422222222
631 2737 2.71445422222222
631 2738 -0.785545777777779
631 2739 -0.785545777777777
631 2740 -0.785545777777777
631 2741 -0.785545777777777
631 2742 -0.785545777777779
631 2743 -0.785545777777777
631 2744 -0.785545777777779
631 2745 -0.785545777777777
631 2746 -0.785545777777779
631 2747 0.714454222222221
631 2748 -1.18554577777778
631 2749 -0.785545777777779
631 2750 1.71445422222222
631 2751 -0.785545777777779
631 2752 -0.785545777777777
631 2753 -0.785545777777779
631 2754 -0.785545777777779
631 2755 -0.785545777777779
631 2756 -0.785545777777779
631 2757 -0.785545777777777
631 2758 -0.785545777777777
631 2759 -0.785545777777779
631 2760 -0.785545777777777
631 2761 -0.785545777777777
631 2762 -0.785545777777777
631 2763 0.714454222222223
631 2764 -0.785545777777777
631 2765 -0.785545777777779
631 2766 -0.785545777777779
631 2767 -0.785545777777779
631 2768 -0.785545777777777
631 2769 -0.785545777777779
631 2770 -0.785545777777777
631 2771 -0.785545777777779
631 2772 -0.785545777777779
631 2773 -0.785545777777779
631 2774 -0.785545777777779
631 2775 0.714454222222223
631 2776 -0.785545777777777
631 2777 -0.785545777777777
631 2778 -0.785545777777777
631 2779 -0.785545777777779
632 2780 2.492232
632 2781 3.242232
633 2782 -0.436339428571429
633 2783 1.06366057142857
633 2784 1.06366057142857
633 2785 0.563660571428571
633 2786 -0.0791965714285716
633 2787 0.563660571428571
633 2788 1.06366057142857
634 2789 0.158898666666667
634 2790 0.158898666666667
634 2791 0.158898666666666
634 2792 2.15889866666667
634 2793 -2.34110133333333
634 2794 2.65889866666667
634 2795 0.158898666666667
634 2796 0.158898666666667
634 2797 0.158898666666669
634 2798 0.158898666666667
634 2799 0.158898666666669
634 2800 0.158898666666669
635 2801 -0.507768
636 2802 -0.507768
637 1574 -1.04110133333333
637 2803 0.492232
638 2804 -0.00776800000000044
638 2805 0.992232
639 2806 0.992232
640 2807 -2.507768
641 1882 -1.007768
642 2808 0.492232000000001
642 2809 0.492232
642 2810 0.492232
642 2811 0.492232
642 2812 0.492232
642 2813 -0.00776799999999866
642 2814 0.492232
642 2815 0.492232000000001
642 2816 0.492232
642 2817 0.492232000000001
642 2818 0.492232
642 2819 -3.907768
642 2820 2.492232
642 2821 0.492232
642 2822 0.492232
642 2823 0.492232
642 2824 0.492232
642 2825 0.992232
642 2826 0.492232
642 2827 0.492232
642 2828 0.492232
642 2829 0.492232
642 2830 0.492232
642 2831 0.492232
643 2832 -0.507768
644 2833 -1.34110133333333
644 2834 -1.34110133333333
644 2835 -0.841101333333334
645 2836 3.492232
646 2837 0.492232
646 2838 0.492232
646 2839 0.492232
647 2840 -1.507768
648 2841 0.492232
649 2842 -1.507768
650 914 -0.352212444444443
650 2843 -1.007768
650 2844 -1.507768
650 2845 -2.507768
650 2846 -2.107768
650 2847 -1.507768
650 2848 -1.507768
650 2849 -1.307768
650 2850 -2.257768
650 2851 -1.84110133333333
650 2852 -1.507768
650 2853 -1.507768
650 2854 -1.507768
650 2855 -1.507768
650 2856 -1.507768
651 2857 1.492232
652 2858 0.492232
653 2859 -1.06332355555555
654 2860 1.492232
654 2861 1.492232
655 2862 0.492232
656 2863 2.492232
657 1220 -1.507768
657 2864 -0.507768
658 2865 -0.00776800000000044
659 1298 -0.174434666666667
660 2866 0.0831410909090913
660 2867 0.0831410909090904
660 2868 0.0831410909090913
660 2869 0.0831410909090913
660 2870 0.0831410909090904
660 2871 0.0831410909090913
660 2872 1.08314109090909
660 2873 -0.166858909090909
660 2874 0.0831410909090913
660 2875 0.0831410909090913
660 2876 0.0831410909090913
660 2877 0.0831410909090904
660 2878 0.0831410909090904
660 2879 0.0831410909090904
660 2880 0.0831410909090904
660 2881 0.0831410909090904
660 2882 0.0831410909090904
660 2883 0.0831410909090913
660 2884 0.0831410909090913
660 2885 0.0831410909090913
660 2886 0.0831410909090904
660 2887 0.0831410909090904
661 2888 -1.17443466666667
661 2889 -1.17443466666666
661 2890 -1.17443466666666
661 2891 -1.17443466666666
661 2892 -1.17443466666666
661 2893 -1.17443466666666
661 2894 -1.17443466666666
661 2895 -1.17443466666666
661 2896 -1.17443466666666
661 2897 -1.17443466666666
661 2898 -1.17443466666666
661 2899 -1.17443466666666
661 2900 -1.17443466666666
661 2901 -1.17443466666666
661 2902 -1.17443466666666
661 2903 -1.17443466666666
661 2904 -1.17443466666666
661 2905 -1.17443466666666
661 2906 -1.17443466666666
661 2907 -1.17443466666666
661 2908 -1.17443466666667
662 424 0.742232
663 2909 -2.507768
664 2910 -0.507768
665 2911 -1.507768
666 2912 -0.107768
666 2913 0.367232
666 2914 0.492232
667 2915 0.158898666666667
668 1095 -0.507768
669 2916 -0.00776800000000044
669 2917 -0.00776800000000044
670 268 -1.32258281481482
671 2918 0.825565333333333
671 2919 0.825565333333333
671 2920 0.825565333333333
672 2921 0.492232
673 2385 -1.007768
673 2922 0.492232
673 2923 0.992232000000001
673 2924 -0.00776800000000044
674 2925 -1.007768
674 2926 -1.007768
675 2927 3.492232
675 2928 3.492232
675 2929 3.492232
675 2930 3.492232
675 2931 3.492232
675 2932 3.492232
675 2933 3.492232
675 2934 3.492232
676 2935 2.15889866666667
676 2936 2.15889866666667
676 2937 2.15889866666667
676 2938 2.15889866666667
676 2939 2.15889866666667
676 2940 2.15889866666667
677 1574 0.958898666666666
677 2941 1.492232
677 2942 1.82556533333333
678 2943 -1.007768
678 2944 -1.007768
679 2945 0.492232
680 2946 0.492232
681 2947 -0.507768
682 2948 0.492232
683 2949 -0.632767999999999
683 2950 -0.632768
683 2951 -0.632768
683 2952 -0.132767999999999
683 2953 -2.29943466666667
683 2954 -0.632767999999999
683 2955 -0.632768
683 2956 -0.132767999999999
684 2957 -0.222053714285715
684 2958 -0.222053714285715
684 2959 -0.222053714285715
684 2960 -0.222053714285715
684 2961 -0.222053714285715
684 2962 -0.222053714285715
684 2963 -0.222053714285714
685 2964 0.714454222222223
685 2965 0.714454222222222
685 2966 0.714454222222222
685 2967 0.714454222222222
685 2968 0.714454222222222
685 2969 0.714454222222222
685 2970 0.714454222222222
685 2971 0.714454222222222
685 2972 0.714454222222222
685 2973 0.714454222222223
685 2974 -0.952212444444445
685 2975 0.714454222222222
685 2976 0.714454222222222
685 2977 0.714454222222223
685 2978 0.714454222222223
685 2979 -0.952212444444444
685 2980 0.214454222222222
685 2981 1.71445422222222
685 2982 3.04778755555556
685 2983 1.71445422222222
685 2984 0.714454222222222
685 2985 0.714454222222223
685 2986 0.714454222222222
685 2987 0.714454222222222
685 2988 0.714454222222223
685 2989 0.214454222222222
685 2990 0.714454222222222
685 2991 0.714454222222222
685 2992 0.714454222222223
685 2993 1.21445422222222
685 2994 0.714454222222222
685 2995 0.714454222222222
685 2996 0.714454222222222
685 2997 0.214454222222222
685 2998 0.714454222222222
685 2999 0.714454222222222
685 3000 0.714454222222222
685 3001 0.714454222222222
685 3002 0.714454222222222
685 3003 0.714454222222222
685 3004 0.714454222222222
685 3005 0.714454222222223
685 3006 0.714454222222222
685 3007 0.714454222222223
685 3008 0.714454222222222
685 3009 0.714454222222222
685 3010 0.714454222222222
685 3011 0.714454222222223
685 3012 0.714454222222222
685 3013 0.714454222222222
685 3014 0.714454222222222
685 3015 0.714454222222223
685 3016 0.714454222222222
685 3017 0.714454222222222
685 3018 0.714454222222222
685 3019 0.714454222222223
685 3020 0.714454222222222
685 3021 0.714454222222222
685 3022 0.714454222222223
685 3023 0.714454222222222
685 3024 0.714454222222222
685 3025 0.714454222222222
685 3026 0.714454222222222
685 3027 0.714454222222223
685 3028 0.714454222222222
685 3029 0.714454222222222
685 3030 0.714454222222223
685 3031 0.714454222222222
685 3032 0.714454222222222
685 3033 0.714454222222223
685 3034 0.714454222222223
685 3035 0.714454222222222
686 3036 1.492232
687 1762 -0.841101333333333
688 3037 -1.007768
688 3038 -0.507768
689 3039 -0.841101333333334
689 3040 -0.841101333333333
689 3041 -0.841101333333334
689 3042 -0.841101333333334
689 3043 -0.841101333333334
689 3044 -0.841101333333333
690 3045 -0.841101333333333
690 3046 -1.84110133333333
690 3047 -1.84110133333333
691 3048 0.492232000000001
691 3049 0.492232
692 3050 -1.507768
693 3051 2.492232
694 3052 0.158898666666666
694 3053 -0.841101333333333
694 3054 -0.841101333333334
695 3055 -0.257768
696 1891 1.492232
697 3056 3.65889866666667
697 3057 3.65889866666667
697 3058 3.65889866666667
697 3059 3.65889866666667
697 3060 3.65889866666667
697 3061 3.65889866666667
698 3062 3.092232
699 3063 -2.507768
700 1199 -0.507768
701 3064 3.492232
702 3065 0.492232
703 3066 -0.00776800000000044
703 3067 -0.00776799999999866
704 1786 0.825565333333333
705 3068 1.492232
706 3069 -2.507768
706 3070 -2.507768
707 3071 2.492232
708 3072 -2.507768
709 56 -0.222053714285713
710 3073 -1.007768
711 3074 2.492232
712 3075 -0.174434666666667
712 3076 3.15889866666667
712 3077 3.15889866666667
713 3078 1.492232
714 3079 0.325565333333333
714 3080 -0.174434666666667
714 3081 -0.174434666666667
714 3082 -0.174434666666667
714 3083 -0.174434666666667
714 3084 -0.174434666666667
715 3085 -1.257768
716 3086 0.992232
716 3087 0.992232
716 3088 2.492232
716 3089 0.992232
717 914 1.98112088888889
717 3090 2.82556533333333
717 3091 0.225565333333333
718 3092 -0.174434666666667
719 506 -0.00776799999999866
720 1025 -0.952212444444445
721 3093 4.492232
722 3094 -2.507768
723 3095 -0.507768
724 3096 -2.507768
725 3097 0.492232
726 3098 3.492232
726 3099 3.492232
727 3100 -1.507768
728 3101 -2.507768
729 3102 0.617232
729 3103 0.617232
729 3104 0.617232
729 3105 0.617232
729 3106 0.617232
729 3107 0.617232
729 3108 0.617232
729 3109 0.617232
730 3110 -0.707767999999998
731 1691 -1.257768
732 3111 2.492232
733 3112 -0.507768
733 3113 -0.507767999999999
733 3114 -0.507768
734 3115 -0.507768
735 3116 -1.507768
736 3117 -1.007768
737 3118 -1.507768
738 3119 0.992232
739 3120 0.492232
740 3121 2.82556533333333
740 3122 0.325565333333333
740 3123 0.325565333333333
740 3124 0.325565333333333
740 3125 0.325565333333333
740 3126 0.325565333333333
741 3127 -0.507768
741 3128 -0.507768
741 3129 -0.507768
742 1253 1.092232
742 3130 0.492232
743 3131 4.492232
744 3132 -0.507768
745 3133 0.492232
745 3134 0.804732
746 2786 -0.650625142857143
747 2265 -1.507768
748 3135 -1.507768
748 3136 -1.507768
749 3137 0.292232
749 3138 -0.00776800000000044
750 3139 -0.507768
750 3140 0.492232000000001
751 3141 0.892232
751 3142 0.892232
751 3143 0.892232
751 3144 0.892232
751 3145 0.892232
752 3146 -2.507768
753 3147 3.492232
754 1038 -0.507768
755 3148 -1.17443466666667
756 3149 1.992232
756 3150 1.992232
757 3151 0.992232
758 3152 2.492232
759 3153 -2.507768
760 3154 0.617232
760 3155 0.617232000000001
760 3156 0.617232000000001
760 3157 0.617232
760 3158 0.617232
760 3159 0.617232
760 3160 0.617232
760 3161 0.617232
761 3162 -0.507768
762 3163 3.82556533333333
762 3164 3.82556533333333
762 3165 3.82556533333333
763 2322 0.992232
764 3166 -0.507768
764 3167 -0.507768
765 3168 -0.650625142857143
766 3169 -1.507768
767 3170 -2.507768
768 3171 0.569155076923076
768 3172 0.0691550769230762
768 3173 0.569155076923076
768 3174 0.569155076923076
768 3175 0.569155076923076
768 3176 -0.430844923076924
768 3177 0.569155076923076
768 3178 0.569155076923076
768 3179 0.569155076923078
768 3180 0.569155076923076
768 3181 0.569155076923076
768 3182 -0.930844923076924
768 3183 0.569155076923076
769 3184 0.492232
770 3185 -1.507768
771 3186 -0.507768
772 3187 3.242232
772 3188 3.242232
772 3189 3.242232
772 3190 3.242232
773 3191 -0.507768
774 3192 0.242232
774 3193 0.242232
774 3194 0.242232
774 3195 0.242232000000001
775 3196 -1.007768
776 3197 -0.00776800000000044
776 3198 -0.00776799999999866
777 3199 -0.667767999999999
777 3200 -0.667768000000001
777 3201 -0.223323555555556
777 3202 -1.167768
777 3203 -0.667767999999999
777 3204 -0.167767999999999
777 3205 -0.167767999999999
777 3206 -0.667768000000001
777 3207 -0.667767999999999
777 3208 -0.667767999999999
777 3209 0.998898666666668
777 3210 -1.167768
777 3211 -1.167768
777 3212 -1.33443466666667
777 3213 -0.667767999999999
777 3214 -0.667767999999999
777 3215 -0.667767999999999
777 3216 -3.167768
777 3217 -0.667767999999999
777 3218 -0.00110133333333362
777 3219 -1.52491085714286
777 3220 -1.067768
777 3221 -2.33443466666667
777 3222 -0.667768000000001
777 3223 -0.882053714285715
777 3224 -0.667767999999999
777 3225 -0.667768000000001
777 3226 -0.667768000000001
777 3227 -0.467768
777 3228 -0.667768000000001
777 3229 -1.667768
777 3230 -1.667768
777 3231 -2.00110133333333
777 3232 -0.667767999999999
777 3233 -0.667767999999999
777 3234 -0.667767999999999
777 3235 -0.667767999999999
777 3236 -1.667768
777 3237 -0.667767999999999
777 3238 -0.667767999999999
777 3239 -0.667767999999999
777 3240 -0.667767999999999
777 3241 -0.667767999999999
777 3242 -0.667768000000001
777 3243 -2.167768
777 3244 -0.667767999999999
777 3245 -0.667768000000001
777 3246 -0.667768000000001
777 3247 -0.667768000000001
777 3248 -1.33443466666666
777 3249 -0.667768000000001
777 3250 -0.667768000000001
777 3251 -0.667768000000001
777 3252 -0.667768000000001
777 3253 -0.667767999999999
777 3254 -0.667768000000001
777 3255 -0.667768000000001
777 3256 -0.667767999999999
777 3257 -0.667767999999999
777 3258 -0.667767999999999
777 3259 -0.667768000000001
777 3260 -0.667768000000001
777 3261 -0.667768000000001
777 3262 -0.667768000000001
777 3263 -0.667767999999999
777 3264 -1.917768
777 3265 -0.667767999999999
777 3266 -0.667768000000001
777 3267 -0.667768000000001
777 3268 -0.667768000000001
777 3269 -0.667768000000001
777 3270 -0.667768000000001
777 3271 -0.667767999999999
777 3272 -0.667768000000001
777 3273 -0.667768000000001
778 3274 -0.507768
778 3275 -0.507768
778 3276 -0.507767999999999
778 3277 -0.507767999999999
778 3278 -0.507768
778 3279 -0.507768
778 3280 -0.507767999999999
779 3281 -0.841101333333334
779 3282 -0.441101333333332
779 3283 -0.841101333333333
780 3284 -1.007768
780 3285 -0.00776800000000044
781 3286 0.492232
782 3287 0.492232
783 3288 0.492232
784 3289 0.825565333333333
784 3290 0.825565333333333
784 3291 0.825565333333333
784 3292 0.825565333333333
784 3293 1.82556533333333
784 3294 0.825565333333333
785 3295 -1.507768
785 3296 -0.00776799999999866
786 3297 0.0755653333333335
786 3298 -0.424434666666667
786 3299 0.0755653333333335
786 3300 -0.924434666666667
786 3301 0.0755653333333326
786 3302 0.0755653333333326
786 3303 0.0755653333333335
786 3304 0.0755653333333335
786 3305 0.0755653333333335
786 3306 0.0755653333333335
786 3307 0.0755653333333326
786 3308 0.0755653333333335
787 3309 0.492232
787 3310 0.492232
787 3311 0.492232
787 3312 0.492232
787 3313 0.492232
787 3314 0.492232
787 3315 0.492232
787 3316 0.492232
787 3317 0.492232
788 3318 0.492232
788 3319 0.492232
788 3320 0.492232
789 3321 -0.507768
790 3322 2.492232
791 3323 1.492232
792 2748 -0.907768000000001
793 3324 -0.507768
794 3325 -1.307768
794 3326 -0.307767999999999
794 3327 -1.307768
794 3328 -1.307768
794 3329 -1.307768
795 624 -1.132768
795 3330 -0.00776800000000044
796 3331 0.325565333333333
796 3332 1.82556533333333
796 3333 1.82556533333333
797 591 -0.257768
798 3334 -2.507768
799 3335 0.492232
800 3336 -0.507768
801 3337 -0.507768
802 3338 -2.507768
803 3339 -0.507768
804 3340 0.870280780487807
804 3341 0.370280780487803
804 3342 0.370280780487804
804 3343 0.370280780487804
804 3344 -1.6297192195122
804 3345 0.370280780487807
804 3346 0.370280780487804
804 3347 0.370280780487804
804 3348 -0.629719219512196
804 3349 -0.129719219512196
804 3350 0.370280780487804
804 3351 0.370280780487807
804 3352 0.370280780487804
804 3353 1.03694744715447
804 3354 0.370280780487804
804 3355 0.370280780487807
804 3356 0.370280780487804
804 3357 0.370280780487807
804 3358 0.370280780487804
804 3359 0.870280780487807
804 3360 0.370280780487804
804 3361 0.370280780487804
804 3362 0.370280780487803
804 3363 -0.629719219512196
804 3364 0.370280780487807
804 3365 0.370280780487803
804 3366 0.870280780487803
804 3367 0.370280780487804
804 3368 0.870280780487803
804 3369 0.370280780487804
804 3370 0.370280780487804
804 3371 0.370280780487804
804 3372 0.370280780487804
804 3373 0.370280780487804
804 3374 1.03694744715447
804 3375 -0.629719219512197
804 3376 0.370280780487804
804 3377 0.370280780487804
804 3378 0.370280780487804
804 3379 0.370280780487804
804 3380 0.370280780487804
805 3381 -1.17443466666666
806 3382 1.242232
806 3383 1.242232
806 3384 1.242232
806 3385 1.242232
807 3386 -0.00776800000000044
807 3387 -0.00776799999999866
807 3388 -0.00776800000000044
807 3389 -0.00776800000000044
808 3390 -2.507768
809 3391 1.15889866666667
809 3392 1.15889866666667
809 3393 1.15889866666667
810 247 0.212231999999999
811 3394 1.492232
812 3395 -1.507768
813 3396 1.492232
813 3397 1.492232
813 3398 1.492232
813 3399 1.492232
814 3400 3.492232
815 3401 3.492232
815 3402 3.492232
815 3403 3.492232
816 3404 -0.507768
817 1748 -1.707768
818 3405 2.492232
819 3406 -2.507768
820 3407 0.492232
820 3408 0.492232
820 3409 0.492232
820 3410 0.492232
820 3411 0.492232000000001
820 3412 0.492232
820 3413 0.492232
820 3414 0.492232
820 3415 0.492232
820 3416 0.492232
820 3417 0.492232
821 1191 -0.841101333333334
822 3418 1.492232
823 3419 -1.507768
824 3420 0.112921655172413
824 3421 0.112921655172413
824 3422 0.112921655172413
824 3423 0.112921655172414
824 3424 0.112921655172413
824 3425 0.612921655172414
824 3426 0.112921655172413
824 3427 0.112921655172413
824 3428 0.112921655172414
824 3429 0.112921655172414
824 3430 0.112921655172414
824 3431 -1.13707834482759
824 3432 0.112921655172413
824 3433 1.11292165517241
824 3434 0.112921655172414
824 3435 0.112921655172413
824 3436 0.112921655172413
824 3437 0.112921655172414
824 3438 -0.887078344827586
824 3439 1.11292165517241
824 3440 0.112921655172414
824 3441 0.112921655172414
824 3442 0.112921655172413
824 3443 0.112921655172414
824 3444 0.112921655172413
824 3445 0.112921655172414
824 3446 0.112921655172414
824 3447 0.112921655172413
824 3448 0.112921655172414
824 3449 0.112921655172413
824 3450 0.112921655172414
824 3451 0.112921655172413
824 3452 0.112921655172413
824 3453 0.112921655172413
824 3454 0.112921655172413
824 3455 0.112921655172414
824 3456 0.112921655172413
824 3457 0.112921655172413
824 3458 0.112921655172414
824 3459 0.112921655172414
824 3460 0.112921655172414
824 3461 0.112921655172413
824 3462 0.112921655172414
824 3463 0.112921655172414
824 3464 0.112921655172414
824 3465 0.112921655172414
824 3466 0.112921655172413
824 3467 0.112921655172413
824 3468 0.112921655172414
824 3469 0.112921655172414
824 3470 0.112921655172413
824 3471 0.112921655172414
824 3472 0.112921655172414
824 3473 0.112921655172414
824 3474 0.112921655172413
824 3475 0.112921655172414
824 3476 0.112921655172414
824 3477 0.112921655172414
825 3478 -2.507768
826 3479 -0.0791965714285716
826 3480 -0.507768
827 3481 -2.507768
828 3482 6.492232
829 3483 4.492232
830 635 -0.757767999999999
831 914 -0.352212444444445
832 3484 0.292231999999999
832 3485 -0.957768000000002
832 3486 0.292231999999999
832 3487 0.0422319999999994
832 3488 0.292231999999999
833 3489 1.492232
833 3490 1.492232
834 459 0.254136761904761
835 3491 0.492232
836 3492 -0.00776800000000044
836 3493 -0.00776799999999866
836 3494 -0.00776800000000044
836 3495 -0.00776800000000044
836 3496 -1.007768
836 3497 -0.00776799999999866
836 3498 -0.00776800000000044
836 3499 -0.00776799999999866
837 3500 -1.507768
837 3501 -1.507768
838 1034 -1.12315261538462
839 3502 -0.507768
840 1040 2.852232
841 3503 0.492232
842 3504 -2.507768
843 3375 -1.507768
844 3505 0.492232000000001
845 642 -0.507768
846 3506 0.992232
847 3507 -0.507768
848 3508 0.492232
849 3509 -0.00776800000000044
849 3510 -1.007768
850 3511 2.492232
851 3512 0.492232
851 3513 0.492232
852 3514 -0.507768
853 3515 -0.507768
854 459 -1.24586323809524
854 3516 0.992232
855 3517 -2.507768
856 3518 -1.507768
857 3519 -1.507768
857 3520 -0.00776800000000044
858 3521 -1.507768
859 3522 0.492232
860 2105 0.431625939393938
860 3523 -0.841101333333333
860 3524 -0.483958476190477
861 240 0.117232
862 3525 1.492232
862 3526 1.492232
863 3527 1.15889866666667
863 3528 2.15889866666667
863 3529 1.15889866666667
864 3530 -0.507768
865 1181 0.946777454545454
866 3531 -0.841101333333333
866 3532 0.492232
867 3533 0.492232
868 1517 -0.132767999999999
869 3534 -1.107768
869 3535 -1.107768
869 3536 -1.107768
869 3537 -1.107768
869 3538 -1.107768
870 3539 -0.73853723076923
870 3540 -0.73853723076923
870 3541 -0.738537230769229
870 3542 1.76146276923077
870 3543 -0.73853723076923
870 3544 -0.73853723076923
870 3545 0.511462769230771
870 3546 -0.73853723076923
870 3547 -0.0718705641025634
870 3548 0.511462769230771
870 3549 1.26146276923077
870 3550 0.761462769230771
870 3551 0.0614627692307721
871 3552 0.492232
872 3553 1.492232
873 3554 0.381120888888889
873 3555 -0.507768
873 3556 0.825565333333333
874 3557 -2.007768
874 3558 -2.007768
875 3559 -1.36491085714286
876 3560 -0.281961548387097
876 3561 -0.281961548387097
876 3562 -0.281961548387095
876 3563 -0.281961548387097
876 3564 -0.281961548387097
876 3565 -0.281961548387097
876 3566 -0.281961548387095
876 3567 -0.281961548387095
876 3568 -0.281961548387097
876 3569 -0.281961548387097
876 3570 0.718038451612905
876 3571 -0.281961548387097
876 3572 0.384705118279571
876 3573 -0.281961548387097
876 3574 -0.281961548387097
876 3575 -0.281961548387097
876 3576 -0.281961548387097
876 3577 -0.281961548387097
876 3578 -0.281961548387095
876 3579 0.384705118279571
876 3580 -0.281961548387095
876 3581 -0.281961548387095
876 3582 -0.281961548387097
876 3583 -2.2819615483871
876 3584 -0.281961548387097
876 3585 -0.948628215053764
876 3586 -0.281961548387095
876 3587 -0.281961548387097
876 3588 -1.6569615483871
876 3589 -0.281961548387097
876 3590 -0.281961548387097
877 3591 1.492232
877 3592 1.492232
877 3593 1.492232
877 3594 1.20651771428571
878 3595 -1.84110133333333
879 3596 -2.507768
880 3597 0.492232
881 3598 -0.174434666666667
882 3599 2.742232
882 3600 2.742232
882 3601 2.742232
882 3602 2.742232
883 3603 1.15889866666667
883 3604 -0.674434666666667
883 3605 -1.34110133333333
884 673 1.82556533333333
884 3606 -0.407768000000001
884 3607 1.092232
884 3608 1.092232
884 3609 1.092232
885 3610 2.492232
885 3611 2.492232
886 3612 -2.507768
887 3613 -0.00776800000000044
887 3614 -0.00776800000000044
888 3615 0.492232
889 3616 3.492232
890 1975 -0.222053714285715
891 3617 -0.507768
892 3618 0.992232
892 3619 0.992232
893 3620 1.242232
894 3621 -1.17443466666667
894 3622 -1.17443466666666
894 3623 -1.17443466666666
895 2983 -0.00776800000000044
895 3624 0.992232
896 3625 1.492232
897 3626 1.492232
898 624 -0.632768
899 3627 0.492232
900 3628 -0.707767999999998
900 3629 -1.207768
900 3630 -0.707767999999998
900 3631 -0.707768
900 3632 -0.707768
901 3633 -1.757768
901 3634 -1.757768
901 3635 -1.757768
901 3636 -1.757768
901 3637 -1.757768
901 3638 -1.757768
901 3639 -0.757767999999999
901 3640 -1.757768
901 3641 -1.757768
901 3642 -1.757768
901 3643 -1.757768
901 3644 -1.757768
901 3645 -1.757768
901 3646 -1.757768
901 3647 -1.257768
901 3648 -1.757768
901 3649 -1.757768
901 3650 -1.257768
901 3651 -1.757768
901 3652 -1.757768
902 3653 -0.507768
903 3654 0.158898666666666
903 3655 -0.841101333333333
903 3656 0.158898666666669
904 2338 -1.67443466666667
904 3657 -0.507767999999999
905 3658 -1.507768
906 297 -2.007768
907 3659 0.492232
908 3660 1.492232
909 3661 -1.007768
909 3662 -1.67443466666667
910 3663 2.492232
911 3664 0.492232
912 3665 3.06915507692308
912 3666 1.56915507692308
912 3667 1.56915507692308
912 3668 1.56915507692308
912 3669 1.56915507692308
912 3670 1.56915507692308
912 3671 2.56915507692308
912 3672 1.06915507692308
912 3673 1.56915507692308
912 3674 1.56915507692308
912 3675 1.56915507692308
912 3676 1.56915507692308
912 3677 1.56915507692308
913 3678 -1.507768
914 3679 0.492232
914 3680 0.492232
914 3681 0.492232
914 3682 0.492232
914 3683 0.158898666666666
914 3684 -0.00776800000000044
914 3685 -1.007768
914 3686 0.492232
914 3687 0.492232
914 3688 0.492232
914 3689 2.82556533333333
914 3690 0.492232000000001
915 3691 -0.785545777777778
915 3692 -1.78554577777778
915 3693 -0.285545777777777
915 3694 -0.285545777777778
915 3695 2.46445422222222
915 3696 -0.285545777777777
915 3697 -3.28554577777778
915 3698 0.214454222222222
915 3699 -0.285545777777777
916 3700 0.242232
916 3701 0.742232
916 3702 0.742232
916 3703 0.742232
917 3704 -1.507768
918 3705 -0.341101333333333
918 3706 -0.341101333333333
918 3707 0.158898666666666
919 518 -2.62140436363636
919 3708 -0.621404363636362
919 3709 -3.12140436363636
919 3710 -0.621404363636364
919 3711 -0.621404363636364
919 3712 -0.621404363636362
919 3713 -0.621404363636364
919 3714 -0.621404363636362
919 3715 -0.621404363636362
919 3716 -1.62140436363636
919 3717 -0.621404363636362
919 3718 -0.621404363636362
919 3719 0.378595636363636
919 3720 -0.621404363636364
919 3721 -0.621404363636364
919 3722 -0.621404363636364
919 3723 -0.621404363636364
919 3724 -0.621404363636362
919 3725 -0.621404363636364
919 3726 -0.621404363636364
919 3727 -2.62140436363636
919 3728 -0.621404363636364
919 3729 -0.621404363636364
919 3730 -0.621404363636364
919 3731 -0.621404363636364
919 3732 -0.621404363636364
919 3733 -0.621404363636364
919 3734 -0.621404363636364
919 3735 -0.621404363636364
919 3736 -0.621404363636364
919 3737 -0.621404363636364
919 3738 -0.621404363636364
919 3739 -0.621404363636362
919 3740 -1.12140436363636
919 3741 -0.621404363636364
919 3742 -0.621404363636362
919 3743 -0.621404363636362
919 3744 -0.621404363636362
919 3745 -0.621404363636362
919 3746 -0.621404363636362
919 3747 -0.621404363636362
919 3748 -0.621404363636362
919 3749 -0.621404363636362
919 3750 -0.621404363636362
920 3751 2.492232
921 580 0.192232
921 3752 0.849374857142856
921 3753 0.492232
922 3754 0.0922319999999992
922 3755 0.0922319999999992
922 3756 0.0922319999999992
922 3757 0.0922319999999992
922 3758 0.0922319999999992
923 3759 1.492232
924 3760 2.992232
924 3761 2.992232
925 3762 -1.43800055813953
925 3763 -2.43800055813954
925 3764 -1.43800055813954
925 3765 -0.438000558139533
925 3766 -0.238000558139534
925 3767 -1.43800055813954
925 3768 -1.43800055813953
925 3769 -1.43800055813954
925 3770 -1.43800055813953
925 3771 -1.43800055813954
925 3772 -1.43800055813954
925 3773 -1.43800055813954
925 3774 1.06199944186047
925 3775 -1.43800055813953
925 3776 -0.438000558139533
925 3777 -1.43800055813953
925 3778 -1.43800055813954
925 3779 -1.43800055813954
925 3780 -1.43800055813953
925 3781 -0.438000558139533
925 3782 -1.43800055813953
925 3783 -1.43800055813953
925 3784 0.0619994418604666
925 3785 -1.43800055813954
925 3786 -1.43800055813954
925 3787 -1.43800055813953
925 3788 -0.438000558139533
925 3789 -1.43800055813953
925 3790 -0.688000558139535
925 3791 -1.77133389147287
925 3792 -0.438000558139535
925 3793 -0.438000558139533
925 3794 -1.43800055813954
925 3795 -1.43800055813953
925 3796 -1.43800055813953
925 3797 -1.43800055813954
925 3798 -1.93800055813954
925 3799 -1.43800055813954
925 3800 -0.104667224806199
925 3801 0.561999441860467
925 3802 -1.43800055813953
925 3803 -1.43800055813953
925 3804 -1.43800055813953
925 3805 0.0619994418604666
925 3806 -0.938000558139533
925 3807 -1.43800055813953
925 3808 -1.43800055813954
925 3809 -0.938000558139533
925 3810 -1.43800055813954
925 3811 -1.43800055813953
925 3812 -1.43800055813953
925 3813 -1.43800055813953
925 3814 -1.43800055813953
925 3815 -1.43800055813953
925 3816 -1.43800055813953
925 3817 -1.43800055813954
925 3818 -1.43800055813954
925 3819 -1.43800055813953
925 3820 -1.43800055813954
925 3821 -1.43800055813953
925 3822 -1.43800055813953
925 3823 -1.43800055813953
925 3824 -1.43800055813953
925 3825 -1.43800055813953
925 3826 -1.43800055813953
925 3827 1.06199944186047
925 3828 -1.43800055813953
925 3829 -1.43800055813954
925 3830 -1.43800055813954
925 3831 -1.43800055813953
925 3832 -1.43800055813953
925 3833 -1.43800055813954
925 3834 -1.43800055813953
925 3835 -1.43800055813953
925 3836 -1.43800055813954
925 3837 -1.43800055813953
925 3838 -1.43800055813953
925 3839 -1.43800055813953
925 3840 0.0619994418604666
925 3841 -1.43800055813954
925 3842 -1.43800055813953
925 3843 -1.43800055813954
925 3844 -1.43800055813953
925 3845 -1.43800055813954
925 3846 -1.43800055813953
925 3847 -1.43800055813954
926 3848 0.992232
926 3849 -0.00776800000000044
927 3850 0.242232
927 3851 0.242232000000001
927 3852 -0.257768
927 3853 0.242232
928 1262 0.884705118279571
928 3854 -0.281961548387097
928 3855 -1.2819615483871
928 3856 -1.2819615483871
928 3857 -0.281961548387097
928 3858 -0.281961548387095
928 3859 -0.281961548387095
928 3860 -0.281961548387095
928 3861 -0.281961548387095
928 3862 -0.281961548387095
928 3863 -0.281961548387095
928 3864 -0.281961548387095
928 3865 -0.281961548387097
928 3866 0.218038451612905
928 3867 -0.281961548387097
928 3868 -0.281961548387097
928 3869 -0.281961548387097
928 3870 -0.281961548387097
928 3871 -0.281961548387097
928 3872 -0.281961548387095
928 3873 -0.281961548387095
928 3874 -0.781961548387097
928 3875 -1.7819615483871
928 3876 -0.281961548387097
928 3877 -0.281961548387097
928 3878 -0.281961548387095
928 3879 -0.281961548387097
928 3880 0.118038451612906
928 3881 -0.281961548387097
928 3882 -0.281961548387097
928 3883 -0.281961548387097
929 3884 1.41530892307692
929 3885 1.91530892307692
929 3886 1.41530892307692
929 3887 -1.18469107692308
929 3888 1.41530892307692
929 3889 0.815308923076923
929 3890 1.41530892307692
929 3891 0.415308923076923
929 3892 1.41530892307692
929 3893 1.41530892307692
929 3894 2.41530892307692
929 3895 1.01530892307692
929 3896 1.41530892307692
929 3897 -0.251357743589744
929 3898 0.415308923076923
929 3899 1.41530892307692
929 3900 -1.35392184615385
929 3901 1.41530892307692
929 3902 2.61530892307692
929 3903 1.41530892307692
929 3904 1.41530892307692
929 3905 1.41530892307692
929 3906 1.41530892307692
929 3907 -0.384691076923077
929 3908 1.41530892307692
929 3909 1.41530892307692
930 938 -1.64110133333334
930 3910 -1.307768
930 3911 -1.307768
930 3912 -1.307768
930 3913 -1.307768
931 3914 -0.507768
931 3915 -0.507768
932 3916 -0.507768
933 1670 0.492232
934 3917 -0.507768
935 3918 0.825565333333334
936 3919 4.492232
937 3920 -0.507768
938 3921 -2.507768
939 3922 -0.507768
940 3923 -0.507768
940 3924 -0.00776800000000044
940 3925 -0.00776800000000044
940 3926 -0.00776799999999866
940 3927 -0.00776800000000044
940 3928 -0.00776800000000044
940 3929 -0.00776800000000044
940 3930 -0.00776799999999866
941 3931 0.381120888888891
941 3932 0.381120888888889
941 3933 0.381120888888889
941 3934 0.381120888888889
941 3935 0.381120888888889
941 3936 0.881120888888889
941 3937 0.381120888888889
941 3938 0.381120888888889
941 3939 0.381120888888889
942 3940 0.492232
943 3941 0.492231999999999
943 3942 0.158898666666669
943 3943 -2.64110133333333
944 3944 -2.507768
945 3945 0.492232
946 3946 -2.007768
946 3947 -0.257767999999999
947 3948 0.992232
948 2348 0.252231999999999
949 3949 -1.22205371428571
949 3950 -1.22205371428571
949 3951 -0.555387047619046
949 3952 -1.22205371428571
949 3953 -1.22205371428571
949 3954 -1.22205371428571
949 3955 -1.22205371428571
950 3956 0.492232
950 3957 0.492232000000001
951 3958 -0.329990222222222
951 3959 -1.107768
951 3960 -0.107767999999998
951 3961 0.392232000000002
951 3962 -1.107768
952 3963 0.367232000000001
952 3964 -0.632768
952 3965 0.367232000000001
952 3966 -0.632768
952 3967 -0.632768
952 3968 -0.632768
952 3969 -0.632767999999999
952 3970 -0.632768
953 3971 -0.507767999999999
953 3972 -2.507768
953 3973 -2.007768
954 3974 3.492232
955 3975 -2.507768
956 3976 2.15889866666667
956 3977 0.992232
956 3978 0.992232
956 3979 0.992232
957 3980 -0.307767999999999
957 3981 -0.307767999999999
957 3982 -0.307768
957 3983 -0.307768
957 3984 -0.307768
958 3985 -1.507768
959 884 0.992232
960 3986 4.492232
961 1691 -1.257768
962 3987 0.492232
962 3988 1.492232
962 3989 1.492232
963 3990 0.325565333333333
964 3223 0.277946285714285
965 3991 0.492232000000001
966 3992 -1.007768
967 3993 -0.507768
968 3994 -0.507768
969 3995 -0.507768
970 312 -0.674434666666667
971 3996 0.992232
971 3997 0.992232
972 3998 -0.257768
972 3999 -0.257767999999999
972 4000 -0.257768
972 4001 -0.257768
972 4002 -0.257768
972 4003 -0.257767999999999
972 4004 -0.257768
972 4005 -0.257768
972 4006 -0.257767999999999
972 4007 -0.257768
972 4008 -0.257767999999999
972 4009 -0.257767999999999
972 4010 -0.257768
972 4011 -0.257768
972 4012 -0.257768
972 4013 1.742232
972 4014 -0.257767999999999
972 4015 -0.257768
972 4016 -0.257768
972 4017 -0.257768
972 4018 -0.257768
972 4019 -0.257767999999999
972 4020 -0.257767999999999
972 4021 -0.257768
973 4022 0.117232
974 4023 1.492232
974 4024 -0.441101333333334
974 4025 -0.716101333333334
975 4026 -2.007768
975 4027 1.27794628571429
975 4028 -2.34110133333333
975 4029 1.392232
976 4030 0.492232
977 4031 -0.507768
978 4032 -0.507768
979 4033 1.492232
980 4034 -0.507768
981 4035 -1.72515930434782
981 4036 -1.72515930434782
981 4037 -0.325159304347824
981 4038 -1.72515930434782
981 4039 -0.225159304347825
981 4040 -1.72515930434782
981 4041 -1.72515930434783
981 4042 -1.72515930434783
981 4043 -1.72515930434782
981 4044 -1.72515930434783
981 4045 -1.72515930434783
981 4046 -0.225159304347825
981 4047 -1.72515930434782
981 4048 -1.72515930434782
981 4049 -1.22515930434782
981 4050 -1.72515930434782
